~o
<STREAMINFO> 1 39
<VECSIZE> 39<NULLD><MFCC_E_D_A><DIAGC>
~h "man"
<BEGINHMM>
<NUMSTATES> 3
<STATE> 2
<NUMMIXES> 32
<MIXTURE> 1 2.273321e-02
<MEAN> 39
 2.588649e+01 -2.809903e+00 7.525426e-01 -3.965317e+00 7.664362e-01 2.902247e+00 -1.394175e+00 -2.684818e-01 9.344789e-01 -6.614083e-01 2.295045e+00 1.211520e+01 1.988244e+01 -3.584002e-01 -7.644916e-01 1.085146e-01 9.001530e-01 7.803780e-01 -2.645175e-01 -5.157393e-01 -2.801172e-01 2.290382e-01 4.525418e-01 -1.063409e-02 -1.150339e-02 -1.094262e-01 -1.652402e-01 3.468294e-01 3.436711e-01 2.126664e-01 -1.704353e-01 -2.235218e-01 7.856430e-02 9.313393e-02 5.741877e-03 3.322447e-02 -1.137725e-01 -2.983027e-02 -5.249931e-02
<VARIANCE> 39
 1.483417e+01 2.078160e+01 1.498731e+01 8.912703e+00 6.591805e+00 6.332679e+00 6.712646e+00 4.321820e+00 3.916987e+00 3.529087e+00 2.894735e+00 5.274482e+00 1.270005e+00 3.709452e-01 7.070280e-01 5.057454e-01 3.669417e-01 3.228614e-01 2.655986e-01 1.817728e-01 1.685953e-01 1.376294e-01 1.045208e-01 1.169280e-01 3.297861e-02 1.497162e-02 8.895488e-02 1.255403e-01 5.491310e-02 4.830530e-02 3.791933e-02 3.368358e-02 3.965377e-02 2.169086e-02 2.800678e-02 2.438276e-02 1.442280e-02 1.235129e-02 2.014520e-03
<GCONST> 2.574987e+01
<MIXTURE> 2 3.264785e-02
<MEAN> 39
 1.782359e+01 2.196684e+00 6.024188e+00 -4.363363e-01 -1.483613e-01 -4.501695e-01 7.699795e-01 2.075004e-01 4.043623e-01 3.686424e-01 1.344943e+00 3.147135e+00 1.712121e+01 3.947424e+00 2.567838e-01 4.158806e-01 -3.981569e-01 -8.025380e-01 2.453523e-01 -3.080509e-01 1.239164e-01 -1.888393e-01 3.747603e-02 8.977961e-02 1.456842e+00 1.473254e+00 -5.648621e-01 -1.636129e-01 -6.627962e-02 -7.513990e-02 1.023508e-03 2.154552e-03 -3.541785e-02 -2.669722e-02 4.981725e-02 -3.118706e-02 6.071197e-03 2.577034e-01 -1.374931e-01
<VARIANCE> 39
 4.969881e+01 3.491444e+01 1.740895e+01 1.292730e+01 9.421828e+00 5.168870e+00 3.375693e+00 2.991477e+00 2.366488e+00 2.227328e+00 2.052884e+00 2.118721e-01 3.743541e+00 4.270090e+00 2.688391e+00 1.004551e+00 6.510074e-01 6.310953e-01 3.447489e-01 2.142403e-01 2.192311e-01 1.520351e-01 1.298150e-01 1.250000e-01 6.763204e-01 3.102953e-01 3.133886e-01 1.682929e-01 6.723566e-02 5.705176e-02 3.894446e-02 2.799635e-02 2.287234e-02 1.780178e-02 1.831125e-02 1.207095e-02 1.127611e-02 8.481205e-02 3.516269e-02
<GCONST> 4.091583e+01
<MIXTURE> 3 2.725038e-02
<MEAN> 39
 1.056565e+01 5.664884e+00 6.273578e+00 2.798457e+00 3.153519e+00 1.203495e-01 2.187948e+00 6.655900e-01 9.952730e-01 3.084877e-01 7.072461e-01 7.052614e+00 1.312355e+01 -3.006240e-01 2.115533e-01 -8.353284e-03 1.488616e-02 2.435132e-02 4.399150e-02 -3.509375e-02 -4.791300e-03 3.564092e-02 1.114749e-03 1.403571e-02 -3.132087e-01 -1.204417e-01 -2.272689e-02 -8.975285e-02 -4.451679e-02 -2.038355e-02 -1.577252e-02 2.013742e-03 8.083104e-05 4.324754e-03 7.585679e-05 7.373474e-04 -9.613534e-03 -9.979931e-02 -1.453966e-02
<VARIANCE> 39
 1.609335e+01 1.237453e+01 4.316147e+00 2.738990e+00 1.956535e+00 1.907203e+00 1.668126e+00 1.243135e+00 1.292620e+00 1.305196e+00 1.018730e+00 7.244948e+01 1.214143e+00 3.509995e-01 2.751156e-01 1.271226e-01 8.888170e-02 6.510185e-02 5.634885e-02 5.041812e-02 4.345832e-02 4.127390e-02 3.257638e-02 3.230520e-02 2.479085e+00 4.628924e-02 4.188353e-02 3.253482e-02 1.727271e-02 1.461796e-02 1.030175e-02 9.746156e-03 8.290696e-03 7.097011e-03 6.378938e-03 5.354915e-03 5.164516e-03 4.640923e-01 6.164427e-03
<GCONST> 5.081978e-01
<MIXTURE> 4 2.528728e-02
<MEAN> 39
 1.671795e+01 -4.092074e+00 1.566018e+01 3.046233e+00 -2.828489e+00 -1.826928e+00 -1.847266e+00 1.146108e+00 -4.839158e-01 -2.412191e+00 1.682752e+00 1.256985e+01 1.962378e+01 -3.993864e-01 8.514199e-01 5.603339e-01 9.176251e-03 -8.770385e-02 2.138063e-01 3.669682e-01 -1.278345e-01 -3.771004e-01 9.570318e-02 1.066690e-01 -2.174282e-02 -1.238573e-01 2.285790e-01 2.104090e-01 -5.340632e-01 9.273095e-03 2.951388e-01 4.328798e-02 -2.342171e-02 -1.095803e-01 8.292795e-02 1.213355e-01 -7.686142e-02 -3.782509e-02 -3.877901e-02
<VARIANCE> 39
 1.311191e+01 1.401474e+01 1.229774e+01 9.223176e+00 5.099966e+00 5.621811e+00 5.265148e+00 3.423684e+00 3.299516e+00 2.615657e+00 2.045735e+00 6.252406e+00 1.254370e+00 1.718877e+00 7.796553e-01 2.107053e+00 5.145740e-01 4.469270e-01 2.242276e-01 3.024882e-01 1.544390e-01 1.987136e-01 1.301335e-01 9.943099e-02 2.635242e-02 1.245268e-02 9.009946e-02 7.506327e-02 6.983009e-02 5.824876e-02 3.475917e-02 4.514243e-02 2.522982e-02 2.450528e-02 1.844566e-02 1.423343e-02 1.126591e-02 1.206375e-02 2.038466e-03
<GCONST> 2.613350e+01
<MIXTURE> 5 3.557713e-02
<MEAN> 39
 4.931835e+00 -6.972131e-01 7.423650e+00 -2.059286e-02 3.040451e+00 -2.287729e+00 1.299923e+00 -4.850002e-01 1.653569e+00 -4.727172e-01 1.393856e+00 1.135965e+01 1.554771e+01 3.102830e+00 -8.071949e-02 1.786900e-01 3.111269e-01 -4.032759e-01 1.365397e-01 -4.164775e-01 8.463515e-02 -1.641192e-01 2.424986e-02 -5.634407e-02 6.888674e-01 6.774333e-01 5.192494e-01 7.889981e-02 -1.049373e-01 3.557133e-02 -1.296194e-01 1.005629e-01 -1.495257e-01 5.466651e-03 -4.694405e-02 -9.067426e-03 -1.825859e-02 -8.605233e-02 4.343846e-02
<VARIANCE> 39
 3.685975e+01 3.636138e+01 1.665665e+01 7.680355e+00 7.472787e+00 5.316872e+00 3.447385e+00 3.339013e+00 1.892379e+00 1.746157e+00 1.465111e+00 1.351214e+02 3.695939e+00 6.720054e+00 2.234493e+00 8.485867e-01 7.963987e-01 6.100271e-01 2.705776e-01 3.373490e-01 1.708581e-01 1.234410e-01 1.030475e-01 8.630723e-02 2.177243e+00 4.254016e-01 5.426924e-01 2.715035e-01 1.370405e-01 8.627898e-02 7.144140e-02 3.716540e-02 3.875482e-02 3.036235e-02 1.715839e-02 1.627731e-02 1.383814e-02 6.162353e-01 4.280894e-02
<GCONST> 5.328886e+01
<MIXTURE> 6 3.224841e-02
<MEAN> 39
 2.070678e+01 1.937955e+00 8.856087e+00 4.677892e+00 5.547701e-01 -3.167342e-01 9.763874e-01 -4.385725e-01 -1.111986e+00 8.792010e-01 4.334578e-01 1.198726e+01 1.845417e+01 -4.069127e-01 1.217929e+00 2.120124e-01 6.574921e-01 1.535816e-01 -8.113881e-03 5.407832e-01 -1.361006e-01 -3.196463e-01 9.968602e-02 -1.910008e-01 2.246699e-02 -1.972727e-01 -1.816018e-01 -1.843429e-01 -1.528623e-01 -2.512431e-01 7.300473e-02 5.552569e-02 -6.468493e-02 6.228646e-02 1.676941e-01 -5.874364e-02 4.457539e-02 -5.974087e-02 -4.387973e-02
<VARIANCE> 39
 9.293196e+00 1.481358e+01 7.742116e+00 7.162282e+00 5.533233e+00 3.801629e+00 3.903514e+00 3.737004e+00 2.947902e+00 2.427094e+00 2.324393e+00 6.917480e+00 1.495514e+00 5.460954e-01 7.023287e-01 5.761849e-01 4.427526e-01 2.561311e-01 1.956082e-01 2.008341e-01 2.099152e-01 2.485273e-01 1.110988e-01 9.771671e-02 4.794863e-02 1.756697e-02 1.153883e-01 9.816187e-02 5.557863e-02 6.179447e-02 3.646393e-02 2.706537e-02 2.850639e-02 2.382411e-02 2.566842e-02 1.649698e-02 1.490715e-02 2.472994e-02 5.331556e-03
<GCONST> 2.473571e+01
<MIXTURE> 7 1.746802e-02
<MEAN> 39
 2.174109e+01 -7.269226e+00 5.775279e+00 -1.509673e+00 6.686302e-01 1.171047e+00 -1.956540e+00 7.906945e-01 2.591854e+00 4.455109e-01 9.064436e-01 1.192931e+01 1.958276e+01 1.238300e-01 -1.294308e+00 -7.799535e-01 -9.687482e-01 1.556720e-01 3.981050e-01 -1.280418e-01 1.391060e-01 4.997396e-01 -1.139883e-01 2.389613e-03 7.828189e-02 1.548149e-01 -2.329862e-02 3.970794e-01 6.476342e-02 2.401318e-01 -1.298159e-02 -8.354657e-03 1.675334e-01 -9.934194e-02 -1.701305e-01 -3.393641e-03 -7.820119e-03 -4.366947e-02 -4.171113e-02
<VARIANCE> 39
 1.086090e+01 1.579945e+01 1.138208e+01 8.842015e+00 5.759537e+00 5.769101e+00 3.984053e+00 3.841895e+00 3.252028e+00 2.403748e+00 2.936379e+00 5.078950e+00 9.924084e-01 3.566677e-01 1.055846e+00 4.909348e-01 5.078092e-01 2.241934e-01 2.175934e-01 2.268255e-01 1.924526e-01 2.365242e-01 1.142632e-01 1.248364e-01 1.156865e-01 1.672590e-02 4.564628e-02 7.828681e-02 6.042879e-02 5.126211e-02 2.532548e-02 2.715459e-02 2.181472e-02 2.059880e-02 2.009650e-02 1.215936e-02 1.287650e-02 1.827920e-02 2.116157e-03
<GCONST> 2.272908e+01
<MIXTURE> 8 3.492284e-02
<MEAN> 39
 2.221795e+01 -8.190114e+00 2.670572e+00 -3.534774e+00 7.742253e-01 2.654047e+00 -3.218138e-01 3.472533e-01 1.975047e+00 2.742130e-01 1.285173e+00 1.154855e+01 1.987137e+01 -1.179813e-02 -8.203979e-02 7.823920e-02 1.494864e-01 3.875848e-02 -1.173950e-01 -4.712907e-02 5.092523e-02 5.005786e-02 -7.234412e-03 -5.231182e-02 -2.259360e-02 -3.827275e-02 3.415002e-03 4.515740e-02 8.605214e-02 7.453677e-02 -3.836410e-02 -8.601541e-02 -2.088120e-02 3.095732e-02 8.016619e-04 7.298531e-03 -4.625596e-03 3.142966e-03 -1.187979e-02
<VARIANCE> 39
 1.293585e+01 1.890217e+01 1.041686e+01 1.142667e+01 5.858231e+00 7.087542e+00 5.422620e+00 3.534029e+00 3.579767e+00 2.723217e+00 3.421135e+00 2.842684e+00 1.202326e+00 1.421318e-01 1.785843e-01 1.075510e-01 1.067954e-01 6.056578e-02 8.108362e-02 4.391507e-02 3.822439e-02 3.026637e-02 2.730592e-02 2.540410e-02 1.027172e-02 3.724971e-03 2.471420e-02 2.603648e-02 1.806015e-02 1.396453e-02 7.427904e-03 9.099917e-03 5.586576e-03 5.391693e-03 4.439856e-03 4.194823e-03 4.047023e-03 4.914226e-04 3.075277e-04
<GCONST> -1.516969e+01
<MIXTURE> 9 2.435515e-02
<MEAN> 39
 2.760633e+01 -1.898261e+00 5.189283e-01 1.486425e+00 2.735610e+00 -8.017524e-01 -5.718388e+00 -9.843511e-01 1.613802e+00 -3.755162e-01 1.145683e+00 1.233072e+01 1.996041e+01 4.821351e-01 2.097078e-01 -8.995357e-01 -6.545574e-01 6.093705e-02 2.832779e-01 1.635778e-01 -4.952161e-02 -4.520379e-02 1.781875e-01 2.247222e-01 -3.507425e-02 -6.636337e-04 -2.741421e-01 -8.766062e-02 3.794546e-01 -2.907880e-02 -2.109702e-01 -2.475585e-02 1.584049e-01 8.380990e-02 -6.961039e-02 -5.050588e-02 4.823635e-02 -7.432866e-03 -6.568647e-03
<VARIANCE> 39
 1.134059e+01 1.506801e+01 1.671785e+01 1.080216e+01 6.472299e+00 4.282957e+00 5.667212e+00 3.799297e+00 2.243550e+00 2.462166e+00 1.840208e+00 5.007796e+00 1.164228e+00 6.469501e-01 6.262376e-01 9.522525e-01 2.299330e-01 3.685763e-01 1.763928e-01 1.999846e-01 1.704269e-01 1.241882e-01 1.113602e-01 7.345183e-02 2.007960e-02 9.339058e-03 5.682322e-02 6.359001e-02 3.703479e-02 3.797641e-02 2.141474e-02 2.434373e-02 1.936448e-02 1.847001e-02 1.452955e-02 1.251277e-02 9.532071e-03 2.447949e-03 1.118390e-03
<GCONST> 1.472100e+01
<MIXTURE> 10 3.109313e-02
<MEAN> 39
 1.999628e+00 5.344592e+00 9.361718e+00 6.246990e-01 5.631742e+00 -2.021631e+00 1.287475e+00 -7.705928e-01 1.665423e+00 -6.537721e-01 1.207069e+00 9.516869e+00 1.630878e+01 -4.464334e+00 1.660066e-02 -4.111438e-01 -7.103885e-01 5.549949e-01 -3.017404e-01 3.707670e-01 -2.492938e-02 3.805859e-01 -1.109486e-01 6.558814e-02 -1.317616e+00 -4.877259e-01 4.859478e-01 -3.749649e-01 -1.044601e-01 -4.644499e-02 -3.064160e-01 3.029356e-02 -1.271339e-01 2.604993e-02 -8.995458e-02 -9.133039e-04 9.057195e-03 -5.217557e-02 1.039041e-01
<VARIANCE> 39
 5.666510e+01 3.763831e+01 1.401414e+01 8.907302e+00 6.026365e+00 5.559298e+00 4.315088e+00 2.781101e+00 2.090265e+00 1.466148e+00 1.381499e+00 2.945854e+01 2.639896e+00 6.564478e+00 1.598799e+00 1.141442e+00 7.047674e-01 4.480208e-01 2.583919e-01 2.927859e-01 1.637506e-01 1.817724e-01 1.215167e-01 9.084142e-02 1.404934e+00 2.647113e-01 6.691097e-01 2.096820e-01 1.331794e-01 8.851261e-02 4.798379e-02 3.844292e-02 3.318167e-02 2.255391e-02 2.181923e-02 1.722318e-02 1.266699e-02 1.391665e-01 2.050766e-02
<GCONST> 4.768967e+01
<MIXTURE> 11 2.224388e-02
<MEAN> 39
 2.372427e+01 -4.763073e+00 2.103708e+00 -5.707602e+00 -1.612168e+00 2.532562e+00 6.411583e-01 -2.801686e-01 4.517087e-01 6.970560e-01 3.293072e+00 1.118623e+01 2.007297e+01 1.307724e+00 -5.847738e-01 -1.617613e-01 -4.566695e-01 -2.860236e-01 4.513537e-01 -1.468648e-03 1.164648e-02 -2.148573e-02 1.338262e-02 5.465405e-02 1.346052e+00 6.689693e-01 -1.032235e+00 8.293565e-02 7.691063e-02 2.295960e-01 1.821959e-01 -1.646581e-01 3.569852e-02 -3.796721e-02 5.891002e-02 -4.223736e-02 -1.201563e-01 -2.858047e-01 -3.303905e-01
<VARIANCE> 39
 1.265114e+01 1.836319e+01 9.261132e+00 6.983067e+00 6.304073e+00 5.190096e+00 4.279496e+00 3.764637e+00 3.101496e+00 3.211964e+00 2.856169e+00 1.714025e+01 1.370414e+00 3.245048e+00 9.156577e-01 4.013574e-01 3.191831e-01 3.264785e-01 2.119308e-01 1.220667e-01 1.146053e-01 1.090528e-01 1.007308e-01 1.188361e-01 7.215370e-01 2.983941e-01 3.727594e-01 1.173010e-01 4.816740e-02 3.819373e-02 3.437664e-02 2.160187e-02 1.950533e-02 1.590038e-02 1.669701e-02 1.506047e-02 1.270828e-02 1.104096e-01 2.164685e-02
<GCONST> 3.458169e+01
<MIXTURE> 12 2.313031e-02
<MEAN> 39
 2.844802e+01 -2.270405e-01 -8.332931e-01 1.457098e+00 4.144023e+00 4.221384e-01 -5.014722e+00 -2.124991e+00 1.240205e+00 -1.328329e-01 5.207799e-01 1.198633e+01 1.942710e+01 1.314054e-01 -4.610787e-01 3.676440e-01 5.825924e-01 3.039409e-02 -2.756976e-01 -4.833637e-01 1.439338e-01 1.806952e-01 -9.653302e-02 -1.146453e-01 4.339235e-01 1.134810e-01 -1.158898e+00 -1.582766e-01 6.803964e-01 1.615903e-03 -3.062104e-01 -2.047843e-01 3.332972e-01 1.921194e-01 -1.573285e-02 -9.940431e-02 7.130086e-02 -2.278976e-01 -1.291580e-01
<VARIANCE> 39
 1.291851e+01 1.361651e+01 1.243870e+01 1.254049e+01 5.129917e+00 4.931611e+00 5.865815e+00 4.452072e+00 2.426369e+00 2.201561e+00 1.819863e+00 1.374311e+01 1.468970e+00 5.702662e+00 9.938333e-01 2.073622e+00 5.054050e-01 6.047142e-01 4.917662e-01 6.027158e-01 3.371493e-01 1.543973e-01 2.357014e-01 1.093415e-01 1.386736e+00 2.317222e-01 3.485898e-01 1.785339e-01 1.150465e-01 8.807827e-02 4.610178e-02 6.024637e-02 6.046488e-02 2.864129e-02 3.559025e-02 1.909828e-02 1.662799e-02 1.403518e-01 9.809885e-03
<GCONST> 4.839094e+01
<MIXTURE> 13 4.412440e-02
<MEAN> 39
 2.105745e+01 2.926349e+00 7.838792e+00 2.855169e+00 9.719312e-01 -2.984878e-01 -1.021027e-01 -8.051274e-01 -7.388898e-01 3.013452e-01 9.716663e-01 1.240961e+01 1.846529e+01 -2.611544e+00 4.988945e-01 6.959815e-02 -1.161834e-01 7.473680e-01 -1.386593e-01 3.317900e-01 -8.569147e-03 3.081508e-01 -1.184118e-02 -5.810532e-02 -7.440568e-01 -5.403351e-01 -1.062294e+00 -3.196822e-01 -1.692498e-01 -3.048159e-01 7.309930e-02 -4.354132e-02 2.641013e-02 6.314360e-02 1.797710e-01 -6.402479e-02 4.230276e-02 -4.110397e-01 -1.683726e-01
<VARIANCE> 39
 1.677846e+01 2.288299e+01 1.215612e+01 1.390999e+01 6.780719e+00 5.302435e+00 7.643816e+00 3.618778e+00 3.928560e+00 3.193806e+00 3.037512e+00 6.563221e+00 1.660231e+00 5.272865e+00 2.099612e+00 9.664788e-01 8.602495e-01 4.753217e-01 3.052195e-01 4.364860e-01 2.243505e-01 2.567434e-01 1.762454e-01 1.357568e-01 1.431280e+00 3.304869e-01 2.945925e-01 2.200607e-01 8.065406e-02 9.433279e-02 6.223865e-02 3.967982e-02 5.527971e-02 2.835500e-02 3.317585e-02 2.047105e-02 2.033807e-02 8.164490e-02 1.731833e-02
<GCONST> 4.998618e+01
<MIXTURE> 14 2.681872e-02
<MEAN> 39
 2.609700e+01 8.642869e+00 6.000562e+00 -3.772774e+00 -5.684321e+00 -8.413565e-01 -7.971948e-02 7.860729e-01 6.066799e-01 -3.948981e-01 8.883020e-01 1.219316e+01 1.971448e+01 7.713561e-02 -4.008059e-01 -3.375134e-01 -1.998302e-01 8.504112e-02 6.840122e-02 4.759619e-02 1.809809e-01 8.924622e-02 -1.001749e-01 -1.023295e-03 -3.184250e-02 1.456814e-02 -5.733274e-03 -3.285628e-01 -1.976249e-01 -6.965284e-03 2.013518e-01 1.329832e-01 3.681380e-02 -2.127301e-03 -3.310758e-02 -7.193612e-02 2.259132e-02 -5.398212e-02 -1.558353e-02
<VARIANCE> 39
 9.224053e+00 1.266783e+01 6.902788e+00 6.301069e+00 4.555541e+00 3.829911e+00 3.312948e+00 3.080436e+00 2.291521e+00 2.019493e+00 1.790872e+00 5.605307e+00 1.337734e+00 3.117478e-01 9.235949e-01 4.332921e-01 4.104477e-01 2.201009e-01 2.032856e-01 1.337884e-01 9.404282e-02 9.927453e-02 1.169583e-01 6.953511e-02 3.531278e-02 3.386782e-02 5.474708e-02 5.498112e-02 3.510837e-02 2.897909e-02 3.039051e-02 1.685562e-02 1.859291e-02 1.530218e-02 1.160902e-02 1.150959e-02 1.152920e-02 2.163712e-02 2.766346e-03
<GCONST> 1.367282e+01
<MIXTURE> 15 1.793527e-02
<MEAN> 39
 1.977997e+01 -2.487764e+00 1.131058e+01 4.755482e+00 -4.250132e-01 -1.406848e+00 -4.279988e+00 -4.590503e-01 3.825261e-01 -2.025066e+00 1.576292e+00 1.260255e+01 1.986334e+01 3.829960e-01 5.305048e-01 -4.725370e-01 -9.906621e-02 3.158363e-01 2.517117e-01 5.338104e-02 -1.628750e-01 -1.419041e-01 1.641304e-01 5.693516e-02 -1.034460e-01 -1.145733e-01 -6.955039e-02 1.210375e-01 -4.837024e-02 -8.751280e-02 4.427677e-02 2.602577e-02 1.069411e-01 -2.084275e-03 -2.483727e-02 3.928180e-02 5.859805e-03 -8.067875e-02 -4.192106e-02
<VARIANCE> 39
 1.050802e+01 1.213792e+01 9.157094e+00 6.478471e+00 5.067637e+00 3.890411e+00 2.541539e+00 2.797489e+00 2.367015e+00 2.895953e+00 2.159863e+00 7.027590e+00 1.443480e+00 2.913605e-01 2.933941e-01 3.123634e-01 1.635049e-01 8.919291e-02 1.021756e-01 8.530217e-02 7.171488e-02 7.985044e-02 7.156257e-02 4.732817e-02 4.531017e-02 9.589931e-03 6.215778e-02 3.849464e-02 2.305974e-02 1.860698e-02 1.660243e-02 1.324202e-02 1.403422e-02 8.671472e-03 8.733907e-03 1.021604e-02 7.107839e-03 3.419686e-02 2.213606e-03
<GCONST> 4.392820e+00
<MIXTURE> 16 5.231201e-02
<MEAN> 39
 2.334296e+01 5.805489e-02 3.824834e+00 -9.823094e-01 9.385192e-01 2.790775e-01 -9.103375e-01 -3.629946e-01 -2.322850e-01 3.045324e-01 2.329224e+00 9.650427e+00 1.800709e+01 -3.299004e-01 4.704787e-01 5.545969e-02 2.215077e-01 1.871188e-01 7.249254e-02 2.884797e-01 1.490447e-02 -4.269139e-02 1.822565e-02 -7.975665e-02 -3.376133e-01 -2.458001e-01 -1.948414e-01 -1.169254e-01 8.536071e-02 2.712268e-02 -5.225451e-02 -4.056911e-02 2.086728e-02 5.100898e-02 9.391577e-02 9.733005e-03 -5.995600e-02 6.022290e-02 1.855109e-02
<VARIANCE> 39
 1.631901e+01 2.463909e+01 1.743639e+01 1.462880e+01 8.872152e+00 5.854688e+00 6.368902e+00 4.763216e+00 4.607375e+00 3.832968e+00 3.341488e+00 2.966994e+01 2.507532e+00 8.762621e-01 1.231487e+00 5.298960e-01 5.879055e-01 4.019679e-01 2.726091e-01 2.855517e-01 1.745695e-01 2.414989e-01 1.707754e-01 1.420833e-01 1.080446e+00 1.173453e-01 1.179167e-01 1.208993e-01 5.088453e-02 5.907468e-02 4.613984e-02 3.477976e-02 3.106885e-02 2.469691e-02 3.155101e-02 2.287745e-02 1.787357e-02 1.888577e-01 1.579975e-02
<GCONST> 4.472232e+01
<MIXTURE> 17 3.677609e-02
<MEAN> 39
 1.467779e+01 -9.587849e-01 1.598011e+01 3.150924e+00 -1.454561e+00 -2.701670e+00 -1.223264e+00 8.405654e-01 -1.609613e+00 -1.538548e+00 1.775595e+00 1.158844e+01 1.829388e+01 -1.235283e+00 1.412331e+00 -9.507047e-01 3.024921e-01 7.833681e-01 1.406967e-01 5.574225e-01 -7.059251e-02 5.886694e-02 1.386271e-01 -1.316001e-01 -1.237308e+00 -9.110036e-01 -5.215176e-01 -3.130983e-03 -5.596154e-01 -1.766074e-01 1.708968e-01 5.577613e-02 7.430658e-02 -7.582577e-02 2.051228e-01 8.107542e-02 -3.802201e-02 -4.072042e-01 -2.175028e-01
<VARIANCE> 39
 1.680930e+01 2.002063e+01 2.207529e+01 8.962561e+00 6.654502e+00 8.189273e+00 5.337627e+00 4.977681e+00 4.232951e+00 3.470353e+00 2.062912e+00 2.225556e+01 2.707178e+00 1.943612e+00 1.007779e+00 1.286505e+00 5.124428e-01 3.552119e-01 3.325003e-01 2.287116e-01 1.818022e-01 2.590030e-01 1.572947e-01 9.700031e-02 1.162528e+00 2.702719e-01 3.431596e-01 2.254965e-01 1.081237e-01 8.741542e-02 5.020346e-02 5.172708e-02 3.956072e-02 4.014213e-02 2.743440e-02 2.426481e-02 1.654568e-02 1.932317e-01 2.981865e-02
<GCONST> 4.962706e+01
<MIXTURE> 18 4.821740e-02
<MEAN> 39
 2.303571e+01 -5.470810e+00 5.142372e+00 -4.839413e-01 6.079413e-02 -3.731818e-01 -2.076897e+00 1.137441e+00 1.764945e+00 -2.969783e-02 1.607811e+00 1.179432e+01 1.947729e+01 -3.809729e-01 6.878724e-01 8.311000e-01 3.949128e-01 -3.129359e-01 -2.252068e-01 3.346629e-01 6.683352e-02 -3.850427e-01 7.369725e-03 1.364048e-02 -1.770813e-02 -1.078558e-01 -9.293878e-03 3.043990e-01 2.515912e-02 4.327928e-02 2.746177e-02 7.520083e-02 9.461158e-02 -9.604733e-02 -1.215649e-01 3.309138e-03 -1.678063e-02 2.224612e-03 -2.804923e-02
<VARIANCE> 39
 1.716258e+01 2.122118e+01 1.962328e+01 8.295917e+00 6.449503e+00 4.817903e+00 5.549161e+00 4.153829e+00 3.991316e+00 3.463508e+00 3.711710e+00 4.073457e+00 1.416021e+00 3.649470e-01 6.886504e-01 4.088718e-01 7.187932e-01 2.672743e-01 2.797531e-01 2.643169e-01 1.724502e-01 1.555165e-01 1.164892e-01 1.611661e-01 1.442409e-02 1.361472e-02 5.125665e-02 6.540903e-02 4.886893e-02 3.982335e-02 3.354635e-02 2.041505e-02 3.179858e-02 1.937974e-02 2.297240e-02 1.628497e-02 1.624130e-02 1.329805e-03 1.177192e-03
<GCONST> 2.027621e+01
<MIXTURE> 19 4.171403e-02
<MEAN> 39
 2.077020e+01 -7.085190e+00 6.338722e+00 -1.299382e+00 -9.279175e-01 -1.628217e+00 -2.131418e+00 8.592636e-01 2.372887e+00 1.161199e+00 1.724098e+00 1.244427e+01 1.976968e+01 1.039793e-01 5.722812e-01 1.847671e-01 4.035033e-01 8.338325e-02 6.322520e-03 7.983287e-02 -7.895103e-02 -2.972708e-01 -8.752666e-02 1.088798e-01 7.006337e-02 -1.666760e-01 -2.821254e-01 4.327659e-01 1.390779e-02 1.317092e-01 1.855453e-01 6.926853e-02 1.249634e-01 -1.126761e-01 -1.289478e-01 -5.962008e-02 -8.315327e-03 -2.803114e-01 -1.423513e-01
<VARIANCE> 39
 1.427613e+01 1.436814e+01 1.543920e+01 7.598036e+00 5.455114e+00 6.725922e+00 4.437768e+00 4.066369e+00 3.476294e+00 2.966776e+00 2.684384e+00 1.119289e+01 1.716295e+00 4.722682e-01 9.281480e-01 4.846378e-01 3.503404e-01 2.525401e-01 2.531752e-01 1.986406e-01 1.828581e-01 1.568443e-01 9.031742e-02 1.173730e-01 5.745894e-01 7.936683e-02 1.763843e-01 7.690983e-02 5.092848e-02 3.765283e-02 3.127428e-02 3.096417e-02 3.061496e-02 2.031955e-02 2.211311e-02 1.272400e-02 1.323331e-02 9.256665e-02 7.484236e-03
<GCONST> 3.173228e+01
<MIXTURE> 20 2.962393e-02
<MEAN> 39
 2.304528e+01 2.044116e+00 7.016274e+00 2.498034e+00 -2.791833e-01 4.621466e-01 2.301806e-01 -8.189859e-01 -1.157511e+00 1.184641e-01 1.304821e+00 1.188022e+01 1.883672e+01 9.661566e-02 5.991920e-02 -1.268671e-01 -3.332549e-01 -6.181608e-02 4.152666e-02 2.646160e-02 1.362045e-01 1.283851e-01 1.777744e-03 -2.796565e-02 -3.391751e-02 -2.513259e-02 -4.528890e-02 -3.096249e-01 -1.475877e-02 -1.710179e-01 -2.405016e-02 -2.428232e-02 -1.086104e-01 8.779083e-02 1.601252e-01 6.333400e-03 -4.981282e-03 6.460459e-03 3.716872e-02
<VARIANCE> 39
 1.346632e+01 2.229800e+01 1.186497e+01 1.235417e+01 5.545062e+00 3.935607e+00 4.667326e+00 3.206682e+00 2.791221e+00 3.372031e+00 2.939820e+00 3.911663e+00 1.160810e+00 4.062918e-01 1.335856e+00 4.879184e-01 5.446550e-01 2.810348e-01 1.545384e-01 2.734385e-01 1.510568e-01 2.181169e-01 1.099039e-01 9.088089e-02 1.043549e-02 2.379781e-02 7.431149e-02 1.197089e-01 8.493669e-02 8.474527e-02 4.347418e-02 3.462843e-02 3.534483e-02 2.452041e-02 2.525680e-02 2.151704e-02 1.874039e-02 1.380481e-03 4.027125e-03
<GCONST> 2.350190e+01
<MIXTURE> 21 3.884290e-02
<MEAN> 39
 2.859429e+00 -3.614290e+00 4.894615e+00 -1.612623e+00 2.457003e+00 -2.233622e+00 7.106829e-01 -8.215402e-01 1.562941e+00 -4.681329e-01 1.479558e+00 2.166768e+00 1.400638e+01 -1.613578e+00 -7.917067e-01 3.767629e-02 -5.196639e-01 3.128101e-02 -3.461401e-01 2.646381e-02 -2.033847e-02 1.809848e-01 -1.012513e-01 4.556319e-02 -2.736708e-01 3.267678e-01 4.215069e-01 3.244135e-01 1.515635e-01 1.709153e-01 -8.383659e-02 5.401493e-02 -3.116740e-02 7.354315e-02 -7.375249e-02 3.218032e-03 -1.777971e-02 2.642951e-01 1.082590e-01
<VARIANCE> 39
 6.126520e+01 2.090151e+01 1.629979e+01 7.882393e+00 8.111223e+00 5.904156e+00 4.270352e+00 2.752810e+00 2.441035e+00 2.552914e+00 1.668690e+00 9.452111e-01 3.123421e+00 7.129500e+00 1.130189e+00 9.083567e-01 5.456915e-01 3.175686e-01 3.230776e-01 1.756361e-01 1.503509e-01 1.453583e-01 1.164557e-01 8.074076e-02 1.366904e+00 8.072178e-01 9.792005e-01 1.887171e-01 1.347025e-01 1.091197e-01 5.316991e-02 4.968080e-02 3.688146e-02 2.334622e-02 2.399787e-02 2.265014e-02 1.461619e-02 2.104268e-01 8.056861e-02
<GCONST> 4.769981e+01
<MIXTURE> 22 4.009321e-02
<MEAN> 39
 1.863753e+01 -5.158454e+00 1.174271e+01 1.899370e+00 -1.638360e+00 -2.428110e+00 -3.562061e+00 1.914134e-01 1.121888e+00 -8.350294e-01 1.481730e+00 1.276284e+01 1.998841e+01 2.144732e+00 -9.714358e-01 1.109335e-01 4.147952e-01 -5.928470e-01 1.429302e-01 -5.423889e-01 2.028292e-01 -7.244956e-02 -1.335098e-01 1.239515e-01 1.372396e+00 3.953914e-01 -1.298116e+00 4.535035e-01 -3.503543e-01 -1.836205e-01 3.420040e-01 -2.993317e-02 2.615146e-01 -2.875429e-02 6.180581e-03 -1.123242e-02 -3.423468e-03 -4.729555e-01 -2.644024e-01
<VARIANCE> 39
 1.300107e+01 1.183184e+01 1.740527e+01 1.261450e+01 5.602891e+00 3.690357e+00 3.406279e+00 3.128314e+00 3.825698e+00 5.223218e+00 2.148696e+00 9.567183e+00 1.197532e+00 3.134331e+00 1.032116e+00 1.059962e+00 4.610792e-01 3.946090e-01 2.031720e-01 2.568677e-01 2.147988e-01 1.873577e-01 1.432647e-01 8.227851e-02 8.254265e-01 1.394022e-01 4.285518e-01 1.363633e-01 1.086551e-01 6.561223e-02 5.316999e-02 2.962872e-02 3.746572e-02 2.658448e-02 2.482759e-02 2.795899e-02 1.468629e-02 1.235424e-01 1.888701e-02
<GCONST> 4.175521e+01
<MIXTURE> 23 3.162498e-02
<MEAN> 39
 2.121874e+01 -8.940747e+00 2.300813e+00 -2.574112e+00 9.292633e-01 1.036853e+00 4.875539e-01 1.439561e-01 2.842157e+00 6.072126e-01 6.940916e-01 1.219714e+01 1.993519e+01 -1.706402e-01 -8.712780e-02 4.198498e-01 4.132747e-01 -1.126418e-01 -4.335389e-01 -1.156520e-01 2.196391e-01 1.373206e-01 -4.098062e-02 -1.136444e-01 -2.557220e-02 -7.472984e-02 6.062725e-03 1.783902e-01 1.577154e-01 5.501064e-02 -7.581112e-02 -6.632511e-02 -3.436459e-02 3.395278e-02 -5.943999e-02 -2.341125e-02 4.509463e-02 -2.813199e-02 -2.410863e-02
<VARIANCE> 39
 1.382550e+01 1.642015e+01 1.112107e+01 9.316183e+00 5.207437e+00 9.749412e+00 6.565687e+00 4.091556e+00 3.257410e+00 2.355243e+00 3.132859e+00 6.450985e+00 1.471934e+00 2.223210e-01 2.898054e-01 2.842156e-01 1.676472e-01 1.449008e-01 1.917106e-01 1.103463e-01 9.256423e-02 6.155435e-02 4.789275e-02 5.180776e-02 5.650265e-02 1.060044e-02 3.445357e-02 3.614559e-02 2.934499e-02 1.854395e-02 1.520471e-02 1.702299e-02 1.193544e-02 1.307802e-02 1.081582e-02 6.417711e-03 6.805677e-03 1.528741e-02 8.224443e-04
<GCONST> 7.152130e+00
<MIXTURE> 24 3.993551e-02
<MEAN> 39
 1.629452e+01 4.734612e+00 6.972391e+00 3.644114e+00 2.775566e+00 8.726780e-01 2.408199e+00 1.038044e+00 5.296510e-01 4.770229e-01 2.544379e-01 1.019290e+01 1.597270e+01 -1.910799e+00 -4.271234e-01 -3.822617e-01 1.306585e-02 3.868064e-01 5.932238e-02 2.829896e-01 5.504857e-02 3.241557e-01 -2.729203e-02 -4.930272e-02 -9.243220e-01 -7.612449e-01 -1.619936e-01 -3.268425e-01 -9.382553e-02 -2.289252e-01 -1.226432e-01 -1.074833e-01 -1.279085e-01 -6.654110e-02 -1.313153e-02 -4.386616e-02 4.303822e-02 -2.298511e-01 -8.896480e-02
<VARIANCE> 39
 1.735642e+01 1.292828e+01 1.725843e+01 1.007962e+01 6.484555e+00 4.638333e+00 3.926925e+00 2.590159e+00 2.984644e+00 1.965563e+00 1.858678e+00 2.426538e+01 1.949444e+00 1.562494e+00 9.016880e-01 7.596322e-01 5.476713e-01 2.897588e-01 2.019865e-01 2.079030e-01 1.445093e-01 1.406068e-01 1.191471e-01 9.369142e-02 1.554755e+00 1.571361e-01 1.222799e-01 1.114817e-01 5.131642e-02 4.403308e-02 2.874959e-02 2.668685e-02 2.231264e-02 1.886380e-02 1.996921e-02 1.383287e-02 1.181843e-02 1.877727e-01 1.272421e-02
<GCONST> 3.547179e+01
<MIXTURE> 25 2.808882e-02
<MEAN> 39
 1.584499e+01 -4.661740e-01 1.012153e+01 1.628923e+00 1.737106e+00 -2.719040e+00 -1.817433e+00 -7.682555e-01 8.864024e-01 -3.242837e-02 9.260649e-01 6.259604e+00 1.884046e+01 5.526033e+00 -1.269184e+00 3.480790e-01 9.056008e-01 -8.730996e-01 3.070941e-01 -1.068463e+00 7.984508e-02 -1.350576e-01 7.025457e-02 -2.645697e-02 1.807884e+00 7.717293e-01 -8.771399e-01 -2.589545e-02 -2.787906e-01 -1.628177e-01 2.680792e-02 1.965287e-02 4.852903e-02 4.065499e-02 3.886691e-02 -7.693919e-02 3.350649e-02 7.253207e-02 -9.160776e-02
<VARIANCE> 39
 3.472339e+01 1.484645e+01 1.380665e+01 9.095136e+00 5.124540e+00 3.993531e+00 4.041471e+00 3.226379e+00 1.989172e+00 2.980765e+00 1.458547e+00 2.213378e+01 1.511616e+00 2.881034e+00 1.666162e+00 1.371147e+00 5.736810e-01 7.230696e-01 2.536622e-01 2.466226e-01 2.164947e-01 1.708833e-01 2.109449e-01 1.060426e-01 8.789769e-01 5.640990e-02 4.805522e-01 9.477881e-02 7.621066e-02 5.448845e-02 3.579733e-02 2.478962e-02 3.114684e-02 2.466100e-02 1.546741e-02 1.385228e-02 1.053561e-02 1.041488e-01 1.248184e-02
<GCONST> 3.972262e+01
<MIXTURE> 26 2.792246e-02
<MEAN> 39
 8.594168e+00 4.441973e+00 7.612503e+00 3.265633e+00 2.825667e+00 -7.036320e-01 1.225951e+00 -3.656696e-03 5.064067e-01 -3.537616e-01 9.467689e-01 8.439924e-01 1.342347e+01 -3.174796e+00 -2.697781e-01 -1.238001e+00 -5.569535e-01 4.922527e-01 7.373596e-02 3.760577e-01 -1.598987e-01 4.136976e-01 9.153737e-02 -4.150619e-02 -1.623990e+00 -1.228048e+00 1.255089e-02 -5.321389e-01 4.891089e-02 -2.830848e-01 -2.046313e-01 -9.901270e-02 -1.284232e-01 -1.710321e-02 7.518607e-03 -2.186095e-02 4.646695e-02 4.650852e-01 2.411529e-01
<VARIANCE> 39
 3.327700e+01 2.065017e+01 1.126227e+01 5.890931e+00 4.777472e+00 5.391278e+00 4.156312e+00 2.746930e+00 2.811952e+00 1.618229e+00 1.446306e+00 2.370605e-01 4.842214e+00 2.805419e+00 1.784630e+00 1.471564e+00 6.270607e-01 3.993983e-01 3.346657e-01 2.745599e-01 2.078303e-01 1.983609e-01 1.705863e-01 1.120038e-01 9.439827e-01 2.614130e-01 4.695153e-01 2.354233e-01 1.409851e-01 7.168019e-02 4.555290e-02 5.107825e-02 3.353934e-02 2.656812e-02 3.276928e-02 2.150708e-02 1.407557e-02 1.023673e-01 5.790600e-02
<GCONST> 4.325777e+01
<MIXTURE> 27 3.734006e-02
<MEAN> 39
 2.467216e+01 2.320968e-01 3.926417e+00 -5.660447e+00 -3.680734e+00 2.522289e+00 4.499368e-01 -6.735774e-01 -6.111448e-01 -2.315339e-01 2.821128e+00 1.213380e+01 2.020850e+01 1.294248e-01 6.570254e-01 1.699476e-01 5.705049e-04 -1.401874e-01 -2.125375e-02 7.767192e-02 2.800910e-02 -8.704700e-02 -1.327058e-01 -2.012236e-01 -6.696173e-03 -5.912131e-02 -3.763878e-02 5.160068e-02 3.399513e-03 7.481554e-02 7.463841e-02 -4.833975e-02 -1.720740e-02 2.081969e-02 2.866272e-02 1.524088e-02 -2.786831e-02 -7.834706e-02 -4.866152e-02
<VARIANCE> 39
 1.109812e+01 2.515730e+01 8.083359e+00 7.040842e+00 8.437554e+00 4.011674e+00 3.774946e+00 3.435887e+00 3.439729e+00 3.888277e+00 3.441092e+00 5.178643e+00 1.486939e+00 2.406592e-01 4.740875e-01 1.671859e-01 1.224623e-01 1.138416e-01 7.632185e-02 7.698720e-02 5.811388e-02 7.575598e-02 7.219320e-02 7.818595e-02 8.262864e-02 2.207146e-02 4.189788e-02 4.266495e-02 2.217530e-02 1.785353e-02 1.440987e-02 8.426131e-03 8.414492e-03 6.561386e-03 8.314081e-03 8.777701e-03 8.837691e-03 3.126743e-02 1.942167e-03
<GCONST> 6.081852e+00
<MIXTURE> 28 2.727863e-02
<MEAN> 39
 1.438516e+01 -3.619879e+00 1.789984e+01 9.351512e-01 -4.211851e+00 -2.017071e+00 -1.578535e+00 1.157661e-01 -1.076784e+00 -1.154024e+00 2.172137e+00 1.206955e+01 1.963167e+01 -3.709727e-01 6.193540e-01 5.873278e-01 1.683317e-01 1.269275e-01 2.478098e-01 9.370185e-02 -2.064783e-01 -2.902086e-01 -6.680108e-02 -7.510629e-02 8.697376e-02 -1.021642e-01 1.498827e-02 1.174600e-01 -2.034093e-01 5.895324e-02 1.264879e-01 -9.555993e-03 4.200897e-02 3.345114e-02 3.698507e-02 2.566394e-02 -4.058028e-02 -1.605857e-01 -9.927644e-02
<VARIANCE> 39
 1.200788e+01 1.387734e+01 1.054445e+01 7.336704e+00 5.234234e+00 4.674884e+00 2.950756e+00 2.922643e+00 3.202743e+00 3.043510e+00 1.800583e+00 6.364012e+00 1.569792e+00 2.496715e-01 3.571806e-01 2.895360e-01 1.256887e-01 1.164916e-01 9.047312e-02 8.179349e-02 7.795740e-02 7.504173e-02 6.050618e-02 5.073180e-02 2.896276e-01 4.421212e-02 5.874935e-02 5.257948e-02 6.038769e-02 1.918751e-02 1.730220e-02 1.639645e-02 1.287549e-02 1.024448e-02 1.135674e-02 7.200634e-03 6.597491e-03 6.025624e-02 6.655539e-03
<GCONST> 1.169259e+01
<MIXTURE> 29 1.761631e-02
<MEAN> 39
 2.314892e+01 -5.427104e+00 7.944561e+00 5.438712e+00 3.969628e-01 -3.358907e+00 -5.499506e+00 6.237345e-01 1.604861e+00 -2.173040e+00 5.818013e-01 1.267178e+01 1.999059e+01 -5.300006e-01 -1.669756e-01 7.464205e-01 4.787357e-02 -3.845996e-01 -2.329980e-01 1.584050e-01 3.159555e-01 -1.444769e-01 -1.797466e-01 1.420929e-01 2.535373e-02 1.812112e-04 -2.772253e-01 4.132547e-01 2.481819e-02 -3.152367e-01 8.423769e-02 2.217988e-01 2.197242e-01 -1.546216e-01 -1.245828e-01 1.032296e-01 4.759929e-02 -1.301779e-01 -6.669334e-02
<VARIANCE> 39
 1.342205e+01 1.144736e+01 1.497453e+01 6.237838e+00 7.883360e+00 3.966864e+00 4.807982e+00 3.932500e+00 2.650284e+00 3.142191e+00 1.977066e+00 6.068483e+00 1.112637e+00 3.706282e+00 6.569721e-01 6.212180e+00 3.691052e-01 1.199415e+00 3.209735e-01 5.277030e-01 2.658645e-01 2.494895e-01 2.351625e-01 9.272940e-02 1.185069e-01 1.702395e-02 1.438954e-01 6.899996e-02 1.154590e-01 3.477875e-02 6.296297e-02 3.516390e-02 3.437039e-02 2.274580e-02 2.081768e-02 1.818474e-02 1.161725e-02 3.796619e-02 2.648161e-03
<GCONST> 3.478746e+01
<MIXTURE> 30 2.578276e-02
<MEAN> 39
 2.664320e+01 7.373821e+00 5.588586e+00 -4.240022e+00 -5.316605e+00 1.624384e-01 3.707083e-01 6.571680e-01 1.462418e-01 -9.573445e-01 9.393337e-01 1.208797e+01 1.948097e+01 8.653043e-01 4.162079e-01 1.344367e-02 -2.853382e-01 -4.014761e-01 6.533989e-03 -9.659652e-02 1.596715e-01 6.087675e-02 -2.605494e-02 -4.830316e-02 7.754522e-01 2.936165e-01 -9.589385e-01 -5.351965e-01 -1.682812e-01 1.497414e-01 3.973497e-01 -1.297258e-03 4.059201e-02 -7.422292e-02 5.302499e-02 2.403707e-02 4.506723e-02 -3.028782e-01 -2.430638e-01
<VARIANCE> 39
 1.074597e+01 1.407434e+01 8.138474e+00 7.990615e+00 5.113009e+00 4.642689e+00 3.181853e+00 3.327591e+00 2.893873e+00 2.630350e+00 1.837526e+00 1.026214e+01 1.645870e+00 3.532318e+00 1.819340e+00 4.631428e-01 5.482893e-01 9.015171e-01 2.219968e-01 1.679379e-01 1.313431e-01 1.169518e-01 1.071994e-01 8.282122e-02 1.268413e+00 3.479573e-01 2.965356e-01 1.254282e-01 5.882470e-02 5.329169e-02 4.257989e-02 3.651902e-02 2.342391e-02 2.093193e-02 1.884540e-02 1.998807e-02 1.350682e-02 1.003227e-01 1.607219e-02
<GCONST> 3.747922e+01
<MIXTURE> 31 2.392382e-02
<MEAN> 39
 2.684079e+01 2.552672e+00 2.304650e+00 -5.563959e+00 -3.461875e+00 1.415844e+00 4.946479e-01 1.859146e+00 6.808630e-01 -2.136661e+00 1.091816e+00 1.217485e+01 2.003887e+01 4.919616e-02 -1.381561e+00 -9.405708e-01 1.900548e-02 1.056584e+00 5.449219e-01 -2.330576e-01 -2.089716e-01 -9.989536e-03 -1.086107e-01 1.285246e-01 -3.399698e-04 1.071944e-02 -9.783677e-02 1.105650e-02 1.012912e-01 2.446534e-01 1.760631e-01 -7.382920e-02 -1.631015e-01 -1.533702e-01 2.804021e-02 1.753131e-01 3.907446e-02 -3.360596e-02 -4.545503e-02
<VARIANCE> 39
 1.181888e+01 1.696988e+01 1.075927e+01 7.005554e+00 6.694143e+00 7.830441e+00 4.913498e+00 3.908930e+00 3.929892e+00 2.764443e+00 2.633449e+00 5.350065e+00 1.223968e+00 3.738346e-01 5.392647e-01 4.265080e-01 3.725631e-01 2.534063e-01 2.333394e-01 2.139045e-01 1.547372e-01 9.903578e-02 1.487071e-01 9.549666e-02 4.275284e-02 1.569844e-02 5.642410e-02 6.943736e-02 5.114887e-02 4.451577e-02 3.625899e-02 3.757247e-02 2.046074e-02 1.722238e-02 2.168652e-02 1.640007e-02 1.435478e-02 1.218979e-02 1.316837e-03
<GCONST> 2.049645e+01
<MIXTURE> 32 3.507120e-02
<MEAN> 39
 1.094562e+01 -1.169204e-01 4.393613e+00 1.439848e+00 3.005097e+00 -1.089853e-01 2.162525e+00 9.144951e-01 1.609100e+00 1.360473e-01 4.013167e-01 6.240536e+00 1.319376e+01 -9.246681e-01 -1.678520e-01 -2.740188e-01 -2.047880e-01 -9.104318e-02 -1.553969e-01 -7.740390e-02 -8.949290e-02 2.407931e-02 -7.758687e-02 -3.039945e-03 -7.750039e-01 -5.531151e-01 1.448893e-01 1.870986e-01 4.611164e-02 3.122287e-04 -4.309966e-02 -8.723549e-03 -4.848538e-02 -2.469101e-02 -5.431555e-02 5.494840e-03 1.410613e-02 3.156183e-03 6.791051e-02
<VARIANCE> 39
 2.372264e+01 1.534254e+01 1.198284e+01 7.806235e+00 4.831857e+00 4.529593e+00 3.671058e+00 2.883796e+00 2.803691e+00 2.094585e+00 1.975803e+00 3.934399e+01 2.021962e+00 1.258646e+00 7.565641e-01 4.215801e-01 3.116594e-01 1.656237e-01 1.559139e-01 1.254529e-01 9.778701e-02 9.227028e-02 7.048277e-02 6.947697e-02 2.527879e+00 1.549561e-01 1.548882e-01 7.324313e-02 4.435681e-02 3.488725e-02 2.375126e-02 2.004087e-02 1.949661e-02 1.571843e-02 1.394580e-02 1.139269e-02 1.053101e-02 3.426989e-01 1.352360e-02
<GCONST> 3.024487e+01
<TRANSP> 3
 0.000000e+00 1.000000e+00 0.000000e+00
 0.000000e+00 9.999998e-07 9.999990e-01
 0.000000e+00 0.000000e+00 0.000000e+00
<ENDHMM>
~h "woman"
<BEGINHMM>
<NUMSTATES> 3
<STATE> 2
<NUMMIXES> 32
<MIXTURE> 1 4.079943e-02
<MEAN> 39
 2.292734e+01 -4.102217e-01 2.670836e+00 -3.337713e+00 3.882660e-01 -6.307203e-01 4.380859e-01 9.075555e-01 6.178040e-01 1.108488e+00 -3.044418e-01 2.037839e+01 1.917253e+01 6.934743e-02 4.458894e-01 1.021645e-01 -1.043765e-01 -6.204417e-02 1.077099e-01 -2.753411e-02 -1.530966e-01 -2.720366e-02 7.610603e-02 1.978395e-02 -4.551511e-02 -5.845515e-02 2.086998e-02 8.710284e-02 2.190810e-02 2.563611e-02 1.392423e-02 -6.658120e-03 -2.660877e-02 -2.355078e-02 -2.135505e-02 -7.957731e-03 1.658933e-02 1.499955e-02 -1.091719e-02
<VARIANCE> 39
 1.393439e+01 4.645310e+01 1.329589e+01 1.522585e+01 6.547230e+00 6.021125e+00 3.925055e+00 3.677494e+00 2.977645e+00 3.225904e+00 1.941619e+00 9.382131e+00 1.061416e+00 2.727407e-01 3.816585e-01 2.165178e-01 1.998722e-01 1.182451e-01 1.518607e-01 9.081464e-02 1.054626e-01 7.212694e-02 6.841814e-02 5.883121e-02 2.782882e-02 4.430834e-03 3.366619e-02 5.530933e-02 2.147693e-02 1.909685e-02 1.299511e-02 1.129412e-02 1.136484e-02 9.052270e-03 7.894247e-03 7.780158e-03 6.079354e-03 1.274581e-03 5.651643e-04
<GCONST> 2.774659e+00
<MIXTURE> 2 2.695946e-02
<MEAN> 39
 2.435808e+01 8.478210e-02 7.955861e-01 -6.490946e+00 7.723751e-03 6.458162e-01 6.288909e-01 2.857003e-01 5.475168e-02 9.429169e-01 -5.177490e-01 1.809043e+01 1.945525e+01 2.346420e+00 5.912077e-02 -4.510920e-01 -7.005552e-01 -1.710216e-01 3.944368e-01 -6.891116e-02 2.233632e-01 -1.083914e-01 2.055801e-01 -1.235151e-01 3.151262e+00 9.071224e-01 -1.308502e+00 -2.161913e-01 1.333342e-01 3.183065e-01 1.387781e-01 -8.161952e-02 1.929940e-02 -5.787460e-02 8.359315e-02 -7.822404e-02 1.113984e-01 -5.170988e-01 -3.944110e-01
<VARIANCE> 39
 1.713153e+01 5.950603e+01 7.462306e+00 9.328261e+00 8.661923e+00 4.243083e+00 2.692383e+00 2.340157e+00 3.265280e+00 2.555574e+00 2.230769e+00 5.535553e+01 1.008662e+00 2.961675e+00 2.422309e+00 3.585773e-01 4.411359e-01 4.315645e-01 2.064651e-01 1.051870e-01 1.058457e-01 1.048356e-01 9.679058e-02 9.988530e-02 1.118373e+00 2.979712e-01 1.849381e-01 3.203945e-01 5.236476e-02 5.569874e-02 5.577419e-02 2.866226e-02 1.804931e-02 1.598085e-02 1.879578e-02 1.699927e-02 1.588883e-02 3.358751e-01 1.615902e-02
<GCONST> 3.979584e+01
<MIXTURE> 3 2.454743e-02
<MEAN> 39
 1.245258e+01 6.850850e+00 6.188454e+00 2.580558e+00 2.672015e+00 3.529824e-01 1.934636e+00 2.599424e-01 9.110742e-01 1.458190e-01 5.630428e-01 7.182457e+00 1.314432e+01 -1.795905e-01 2.615958e-01 -1.259425e-02 3.189257e-02 1.032394e-02 2.083829e-02 -3.175363e-02 1.092388e-02 2.086559e-02 1.608047e-02 1.778451e-02 -1.704448e-01 -3.197524e-02 -6.189583e-02 -1.022764e-01 -3.557808e-02 -2.003319e-02 -6.708206e-03 2.318272e-03 -2.257500e-04 -2.031344e-03 -8.604046e-03 -9.478350e-03 -1.174713e-02 -4.083685e-02 -1.374242e-02
<VARIANCE> 39
 1.450291e+01 1.366058e+01 3.332508e+00 2.172799e+00 2.006087e+00 1.487305e+00 1.358271e+00 1.226774e+00 1.007086e+00 8.646970e-01 8.613114e-01 5.610727e+01 1.248457e+00 3.275355e-01 3.730740e-01 1.324561e-01 8.427037e-02 6.845917e-02 5.510703e-02 4.724498e-02 4.484421e-02 3.911313e-02 3.599043e-02 3.218459e-02 2.678600e+00 3.737308e-02 3.723616e-02 3.182610e-02 1.700247e-02 1.328188e-02 1.013226e-02 8.778336e-03 7.468714e-03 6.798306e-03 5.818184e-03 5.559791e-03 4.744827e-03 4.131984e-01 5.202404e-03
<GCONST> -2.308209e+00
<MIXTURE> 4 5.765450e-02
<MEAN> 39
 1.922977e+01 -5.708325e+00 6.573240e+00 -2.103876e+00 6.348451e-01 -1.614018e+00 8.516307e-01 2.662891e+00 5.117097e-01 -9.543083e-01 -5.973360e-01 1.963014e+01 1.886448e+01 -5.318019e-02 4.235414e-01 2.994895e-01 -2.146103e-02 -2.239600e-01 6.213638e-03 1.707827e-01 -7.506681e-02 -1.387537e-01 5.188324e-02 -1.729904e-03 -2.442031e-02 -2.434315e-02 1.036674e-01 4.336006e-01 -7.348667e-02 1.883018e-01 5.916580e-02 1.174647e-01 -6.685346e-02 -2.096077e-01 -2.202328e-02 9.272428e-02 2.133884e-02 9.581423e-03 -2.057158e-02
<VARIANCE> 39
 1.127675e+01 2.056033e+01 1.140852e+01 5.355635e+00 6.112195e+00 4.731854e+00 4.762125e+00 2.737780e+00 2.730189e+00 2.616900e+00 2.294582e+00 2.292166e+01 1.143631e+00 4.784255e-01 3.216119e+00 1.042173e+00 6.567589e-01 6.450338e-01 3.041162e-01 2.594317e-01 2.786645e-01 2.299585e-01 1.863378e-01 1.125809e-01 5.738820e-01 2.550727e-02 5.525244e-02 9.128521e-02 5.892665e-02 5.306362e-02 3.832438e-02 3.188612e-02 2.671869e-02 2.053445e-02 1.766240e-02 1.387568e-02 1.364043e-02 1.012302e-01 2.342139e-03
<GCONST> 3.324088e+01
<MIXTURE> 5 3.783232e-02
<MEAN> 39
 2.078306e+01 5.510012e+00 8.522333e+00 2.501418e+00 -8.344100e-01 -8.910086e-01 1.356754e+00 -4.606545e-01 -8.558499e-01 2.350534e-01 -7.785244e-01 2.011976e+01 1.862594e+01 6.525999e-02 1.367712e+00 7.861968e-02 6.821578e-01 -1.162701e-04 2.261331e-01 1.143024e-01 -4.276195e-01 -1.334045e-01 9.403233e-02 -2.718354e-02 2.493011e-01 -5.599794e-02 -1.961869e-01 -3.703700e-01 -9.913982e-02 -1.518376e-01 1.609439e-01 2.325319e-02 -3.779372e-02 1.055441e-01 8.297160e-02 -6.718411e-02 2.722343e-02 -4.158782e-02 -4.060138e-02
<VARIANCE> 39
 6.420834e+00 1.352663e+01 4.884823e+00 4.989254e+00 3.768062e+00 4.718584e+00 3.419833e+00 4.615568e+00 3.297614e+00 2.849575e+00 2.531455e+00 2.361091e+01 1.208613e+00 4.560520e-01 1.006425e+00 4.826046e-01 3.651036e-01 2.393116e-01 2.315105e-01 1.655528e-01 2.110599e-01 1.411599e-01 1.151529e-01 9.281909e-02 3.489400e-01 1.031296e-02 8.994156e-02 1.081402e-01 5.642686e-02 4.717103e-02 3.051819e-02 3.685614e-02 2.288492e-02 3.016851e-02 1.905099e-02 1.719085e-02 1.457985e-02 9.682728e-02 4.735030e-03
<GCONST> 2.603672e+01
<MIXTURE> 6 3.075590e-02
<MEAN> 39
 1.970628e+01 8.173375e+00 7.773044e+00 2.929226e+00 1.083227e+00 6.926875e-01 1.516303e+00 -4.323664e-01 -2.913831e-01 -7.879972e-02 -3.244846e-01 1.863571e+01 1.745407e+01 -1.380092e+00 -1.941009e-01 1.053892e-02 4.555362e-01 5.223132e-01 2.653474e-01 2.689485e-01 8.860674e-02 1.075990e-01 -1.891232e-01 -6.859712e-05 -3.278562e-01 -4.594066e-01 -5.170246e-01 -5.735225e-01 -1.553186e-01 -2.333369e-01 1.280471e-02 -1.136834e-01 -1.759150e-03 3.371209e-02 3.930629e-02 -1.797766e-02 3.309339e-02 -7.399259e-01 -2.143480e-01
<VARIANCE> 39
 1.558838e+01 1.066929e+01 1.411008e+01 9.875319e+00 5.361150e+00 5.000629e+00 3.612963e+00 3.887984e+00 2.689731e+00 2.176904e+00 1.792708e+00 3.384929e+01 1.565053e+00 7.617527e-01 9.209877e-01 3.904320e-01 3.555470e-01 1.802584e-01 2.072414e-01 1.557621e-01 1.475065e-01 1.111763e-01 9.383982e-02 8.076675e-02 2.167564e+00 8.595716e-02 1.706691e-01 1.108427e-01 4.888585e-02 4.683661e-02 3.265120e-02 2.945542e-02 2.476848e-02 2.455234e-02 1.807703e-02 1.474702e-02 1.163314e-02 2.852103e-01 1.063833e-02
<GCONST> 3.295078e+01
<MIXTURE> 7 2.098313e-02
<MEAN> 39
 1.459041e+00 8.367125e+00 7.096640e+00 3.674252e+00 3.897075e+00 -1.372959e+00 3.006552e+00 -1.025646e+00 1.687673e+00 -1.607280e+00 1.536895e+00 1.429943e+01 1.602961e+01 -2.921006e+00 -2.324070e-01 -4.754968e-01 -8.859034e-02 1.230684e-01 3.238606e-02 3.177459e-01 -9.034614e-02 1.611892e-01 -1.676189e-01 2.737054e-01 -1.691674e+00 -3.822492e-01 7.381716e-01 -4.403030e-01 -8.794023e-03 -2.777763e-01 -3.030762e-01 -9.866110e-02 -1.627998e-01 1.341848e-02 -1.138456e-01 1.260803e-01 -8.592483e-02 4.639816e-02 9.543033e-02
<VARIANCE> 39
 3.759755e+01 4.309246e+01 9.226999e+00 6.542249e+00 4.083120e+00 4.755906e+00 2.510691e+00 1.880983e+00 1.436212e+00 1.281628e+00 1.171255e+00 7.372520e+01 2.108830e+00 7.360580e+00 1.617392e+00 1.217729e+00 4.419390e-01 3.627916e-01 2.907908e-01 2.214902e-01 1.297099e-01 1.410333e-01 1.132908e-01 1.047699e-01 4.809287e+00 3.480490e-01 5.185990e-01 2.448740e-01 2.010307e-01 6.212535e-02 4.688482e-02 5.200203e-02 2.991068e-02 2.637866e-02 1.751134e-02 1.618000e-02 1.371480e-02 4.128303e-01 3.249791e-02
<GCONST> 4.730497e+01
<MIXTURE> 8 3.012198e-02
<MEAN> 39
 2.546243e+01 -7.346572e-01 -1.164258e+00 -5.262694e+00 2.235749e+00 1.649628e+00 1.873653e-01 7.427958e-01 -1.033982e+00 4.822641e-01 1.525392e+00 2.006120e+01 1.940497e+01 -3.442109e-01 -1.531987e+00 -1.805947e-01 7.719809e-01 8.471504e-01 -2.931221e-01 -4.735602e-01 3.820597e-02 3.022769e-01 5.614557e-02 1.815654e-04 -3.757625e-02 -4.593749e-02 -1.200892e-01 2.359278e-01 3.051506e-01 1.908327e-01 -1.671299e-01 -2.125898e-01 -2.581637e-02 7.321680e-02 1.234990e-01 -4.436918e-02 -1.453591e-01 -3.220266e-02 -3.936186e-02
<VARIANCE> 39
 1.306736e+01 1.884450e+01 7.955847e+00 8.240103e+00 8.293965e+00 7.544290e+00 3.867802e+00 3.172771e+00 3.843084e+00 3.359229e+00 2.031754e+00 1.701346e+01 1.087229e+00 4.613920e-01 6.670207e-01 4.866562e-01 3.430738e-01 2.907649e-01 3.364654e-01 1.282251e-01 1.516786e-01 1.504382e-01 1.016410e-01 1.497777e-01 3.588338e-01 1.273577e-02 6.620035e-02 1.022067e-01 5.075409e-02 5.438230e-02 5.245950e-02 3.843340e-02 3.392965e-02 2.275473e-02 2.250391e-02 2.302108e-02 1.233454e-02 8.200500e-02 1.714026e-03
<GCONST> 2.840237e+01
<MIXTURE> 9 1.974312e-02
<MEAN> 39
 1.841781e+01 -1.293159e+00 1.140435e+01 9.592479e-01 -1.843188e+00 -5.505066e+00 -3.014565e-01 1.167289e+00 -2.384035e+00 1.225454e+00 4.624800e-01 2.170003e+01 1.935010e+01 1.292563e+00 -4.197649e-02 -1.651980e+00 5.571486e-01 6.503679e-01 -1.649554e-01 -3.944250e-01 3.112195e-01 2.711003e-01 -1.088789e-01 -4.652812e-02 -1.330999e-01 -6.752095e-02 1.596834e-02 2.252103e-01 -2.507176e-01 -8.300331e-02 1.636264e-01 1.352185e-01 -3.911721e-02 -1.229832e-01 1.287185e-01 -1.387223e-02 -2.547880e-02 -1.304506e-01 -2.893710e-02
<VARIANCE> 39
 1.135796e+01 1.387918e+01 1.430423e+01 6.027989e+00 4.423563e+00 4.428607e+00 3.318003e+00 3.293477e+00 2.286665e+00 1.992126e+00 2.657199e+00 1.161098e+01 9.510211e-01 6.089159e-01 6.160305e-01 8.903926e-01 2.206899e-01 1.880323e-01 2.336617e-01 1.321761e-01 2.082276e-01 8.249907e-02 6.707600e-02 8.216584e-02 1.039774e-01 1.003278e-02 8.088993e-02 5.742665e-02 9.967480e-02 4.589787e-02 3.490116e-02 2.721275e-02 2.020373e-02 1.636763e-02 1.590479e-02 1.365681e-02 1.182804e-02 8.210048e-02 1.848698e-03
<GCONST> 2.017157e+01
<MIXTURE> 10 2.713877e-02
<MEAN> 39
 2.549662e+01 -2.365282e+00 7.100163e-01 9.833344e-01 2.117862e+00 -4.611812e+00 -2.274590e+00 2.357458e+00 7.839606e-02 9.035199e-01 6.347196e-01 2.088034e+01 1.931026e+01 2.958870e-01 -2.985164e-01 -6.223788e-01 -2.705456e-01 1.690224e-01 2.479101e-01 7.284607e-02 6.041766e-02 1.624377e-01 5.793211e-02 -5.013286e-02 -7.791935e-02 -1.608903e-02 -2.638364e-01 4.152765e-02 3.574840e-01 -1.193010e-01 -1.713580e-01 8.847538e-02 1.461525e-01 -7.912386e-02 -7.438371e-02 2.845917e-02 -4.589737e-04 2.288682e-03 -3.892733e-03
<VARIANCE> 39
 1.222772e+01 1.906494e+01 1.619940e+01 5.188635e+00 5.793381e+00 6.136929e+00 3.316002e+00 3.886972e+00 2.111631e+00 1.826181e+00 1.887527e+00 9.137425e+00 9.182934e-01 8.700752e-01 6.642994e-01 1.346089e+00 2.135206e-01 4.201755e-01 2.160370e-01 2.818018e-01 1.727097e-01 1.369627e-01 6.989202e-02 7.306588e-02 3.478456e-02 8.852882e-03 6.289599e-02 9.581010e-02 4.970175e-02 3.072609e-02 2.918784e-02 2.968218e-02 1.915582e-02 2.776183e-02 1.117205e-02 9.776615e-03 9.739934e-03 2.087709e-03 1.105416e-03
<GCONST> 1.631248e+01
<MIXTURE> 11 3.647274e-02
<MEAN> 39
 1.579257e+01 2.681069e+00 6.534541e+00 -5.620224e-01 -3.015641e-01 -2.002858e+00 7.222569e-01 -9.203454e-01 2.173823e-02 -4.919412e-01 -2.515800e-01 3.305613e+00 1.750942e+01 4.730846e+00 4.673867e-02 5.413007e-01 -4.540696e-01 -5.390850e-01 -7.934927e-02 -3.102063e-01 2.531024e-01 -3.104019e-01 3.143063e-01 -3.519111e-01 3.453822e+00 1.431213e+00 -6.034583e-01 -1.439131e-01 -1.672863e-01 -6.195015e-02 5.111226e-02 3.756615e-02 1.861943e-02 5.778149e-02 3.569749e-02 4.212244e-02 6.389981e-02 4.905354e-01 -1.327434e-01
<VARIANCE> 39
 4.165992e+01 3.100389e+01 1.983068e+01 1.252445e+01 4.960338e+00 6.249162e+00 2.699276e+00 2.363045e+00 2.099807e+00 1.895626e+00 1.573385e+00 9.011541e-02 2.535650e+00 2.216723e+00 2.665156e+00 1.608913e+00 8.856958e-01 3.869926e-01 3.725701e-01 2.770007e-01 1.625365e-01 1.594041e-01 1.290153e-01 1.253989e-01 1.366443e+00 2.791272e-01 2.470294e-01 1.625017e-01 7.210364e-02 5.608899e-02 3.043197e-02 2.790763e-02 2.223728e-02 1.720290e-02 1.315042e-02 1.226085e-02 1.006334e-02 1.679514e-01 2.348812e-02
<GCONST> 3.763755e+01
<MIXTURE> 12 3.412775e-02
<MEAN> 39
 1.488271e+01 1.598236e-01 1.394536e+01 -3.859730e+00 -3.142150e+00 -2.544865e+00 8.197843e-01 -7.346421e-01 -5.835255e-01 1.628731e+00 8.596370e-02 2.032093e+01 1.901715e+01 -1.863680e-01 5.500264e-01 4.321676e-01 5.396277e-02 9.222299e-02 7.314876e-02 -2.078136e-01 -2.475249e-01 -6.510229e-02 2.313482e-02 -6.572907e-02 -5.958975e-02 -7.856845e-02 -2.416764e-03 2.442767e-02 -3.111948e-02 7.218022e-02 5.597868e-02 -6.835310e-04 -4.368079e-03 -1.137346e-02 -9.830600e-03 -3.402961e-02 -2.240820e-02 -1.571900e-01 -3.991849e-02
<VARIANCE> 39
 1.054952e+01 1.987127e+01 8.770457e+00 9.749321e+00 3.111779e+00 5.010861e+00 3.606170e+00 3.327049e+00 3.148067e+00 1.691183e+00 1.474151e+00 1.270307e+01 1.052379e+00 2.478095e-01 3.810126e-01 3.135576e-01 1.237704e-01 9.033659e-02 7.362943e-02 1.168648e-01 1.119110e-01 5.218570e-02 5.255320e-02 3.702695e-02 2.929266e-01 9.502836e-03 3.924989e-02 3.613637e-02 2.505460e-02 1.642839e-02 1.216749e-02 1.066366e-02 1.176555e-02 8.424831e-03 6.729461e-03 6.032208e-03 5.328597e-03 1.031360e-01 2.122960e-03
<GCONST> 5.022086e+00
<MIXTURE> 13 3.503901e-02
<MEAN> 39
 1.832008e+01 4.846637e-01 9.526564e+00 -1.073172e+00 -1.771762e+00 -3.638575e+00 6.640230e-01 -1.938377e-01 1.829179e-02 4.118071e-01 -2.562352e-01 1.909334e+01 1.898679e+01 2.876922e+00 -7.809299e-01 5.594902e-01 -3.606666e-01 -3.571780e-01 -1.652454e-01 -2.609368e-01 3.557647e-01 -1.867415e-01 3.377703e-01 -2.331893e-01 3.330786e+00 8.165095e-01 -1.209831e+00 -8.320752e-02 -4.013731e-01 -1.067683e-02 1.987658e-01 1.305541e-01 7.660707e-02 7.835329e-03 5.482883e-02 -3.530701e-02 1.102947e-01 -4.937879e-01 -3.192311e-01
<VARIANCE> 39
 1.784671e+01 3.532992e+01 1.269475e+01 1.356914e+01 4.274399e+00 5.957969e+00 4.101899e+00 3.894438e+00 3.080012e+00 2.073938e+00 2.054150e+00 4.731565e+01 1.168867e+00 2.655262e+00 1.749847e+00 1.065274e+00 5.865111e-01 3.457539e-01 2.063889e-01 3.088050e-01 1.935570e-01 1.705102e-01 1.368334e-01 1.242016e-01 1.356837e+00 1.630167e-01 2.463524e-01 2.465909e-01 6.848497e-02 8.597855e-02 3.267452e-02 3.581611e-02 3.182347e-02 2.958400e-02 1.690308e-02 1.549019e-02 1.340259e-02 2.642039e-01 1.984188e-02
<GCONST> 4.465866e+01
<MIXTURE> 14 3.705137e-02
<MEAN> 39
 2.145178e+01 2.663692e+00 5.465785e+00 -7.377886e-01 4.043657e-01 -2.062682e+00 -4.513599e-01 -5.536286e-01 -4.452178e-01 5.523265e-01 -7.561945e-01 2.215099e+01 1.839656e+01 -2.284795e+00 7.456296e-01 2.891198e-01 6.401734e-01 4.196585e-01 8.914547e-02 2.575036e-01 -2.230064e-01 2.476222e-01 -3.079616e-01 1.585038e-01 -1.650792e+00 -6.613919e-01 -9.897676e-01 -2.893580e-01 -1.374176e-01 -6.355051e-02 8.155941e-02 3.689369e-02 1.363886e-01 4.580971e-02 8.166694e-02 -4.996983e-02 1.034625e-01 -8.568520e-01 -1.999679e-01
<VARIANCE> 39
 1.839362e+01 2.801164e+01 2.083914e+01 1.659010e+01 6.875570e+00 7.887476e+00 5.092815e+00 5.514700e+00 4.814555e+00 5.261465e+00 3.509411e+00 2.048789e+01 1.709712e+00 3.602699e+00 2.157401e+00 1.175418e+00 7.194613e-01 4.218703e-01 3.857724e-01 2.981842e-01 2.449917e-01 2.199603e-01 2.186553e-01 1.666704e-01 3.149150e+00 1.802143e-01 3.136767e-01 2.737229e-01 1.445674e-01 1.122839e-01 6.091249e-02 6.030777e-02 4.031279e-02 4.032399e-02 3.398642e-02 3.624609e-02 2.579597e-02 2.567493e-01 2.150112e-02
<GCONST> 5.703733e+01
<MIXTURE> 15 3.699105e-02
<MEAN> 39
 6.749134e+00 -3.253554e+00 3.371139e+00 -2.387079e+00 1.013071e+00 -2.720705e+00 1.225853e+00 -7.817261e-01 1.504834e+00 -2.231338e-01 9.529850e-01 2.186751e+00 1.476410e+01 -8.572398e-01 -5.291864e-01 -1.484299e-02 -2.940198e-01 -5.169349e-02 -1.405772e-01 2.951556e-01 7.673015e-02 1.380854e-01 -9.795828e-02 6.303114e-02 -2.258863e-01 5.317883e-01 1.764466e-01 3.344731e-01 1.804748e-01 1.274333e-01 -3.684144e-02 8.763579e-02 1.074117e-02 2.252896e-02 -8.923787e-02 2.906796e-02 -4.453316e-02 5.789247e-01 3.204924e-02
<VARIANCE> 39
 8.865191e+01 2.501153e+01 2.414240e+01 1.365764e+01 9.677677e+00 5.648338e+00 4.395392e+00 4.142858e+00 3.408029e+00 3.662707e+00 3.253036e+00 1.092174e+00 4.156200e+00 6.235011e+00 1.279373e+00 1.003140e+00 5.738944e-01 3.346179e-01 3.185259e-01 2.035322e-01 1.929476e-01 1.679500e-01 1.433516e-01 1.436719e-01 3.464770e+00 8.516204e-01 7.306009e-01 2.004574e-01 1.292550e-01 8.423064e-02 6.407077e-02 4.356885e-02 3.784652e-02 2.886103e-02 2.748512e-02 2.343663e-02 2.224913e-02 4.696342e-01 8.651529e-02
<GCONST> 5.526478e+01
<MIXTURE> 16 2.267029e-02
<MEAN> 39
 2.007604e+01 -5.316445e+00 5.371974e+00 -2.550393e+00 -8.907698e-01 -3.121855e+00 1.183113e+00 1.791368e+00 1.266589e+00 7.626901e-01 -1.056469e+00 2.090872e+01 1.907260e+01 1.345498e-01 1.622424e+00 4.822339e-01 9.208015e-01 2.855282e-01 6.356166e-02 -3.831754e-01 -4.234371e-01 -1.070977e-01 1.742782e-01 1.479431e-01 -2.514770e-01 -3.688017e-01 -3.670222e-01 3.024886e-01 4.576230e-02 2.140104e-01 2.000123e-01 1.384082e-01 -7.769650e-03 -1.236387e-01 -3.835417e-02 -8.130684e-02 5.963709e-02 -4.308723e-01 -1.186197e-01
<VARIANCE> 39
 1.083729e+01 1.452223e+01 9.471211e+00 5.835183e+00 4.655107e+00 3.497288e+00 4.963569e+00 2.188768e+00 2.055919e+00 2.432721e+00 1.758689e+00 1.444836e+01 1.308176e+00 6.484266e-01 7.425110e-01 4.280265e-01 3.447074e-01 3.458704e-01 2.539647e-01 1.582636e-01 1.215047e-01 1.036195e-01 9.140339e-02 7.874686e-02 8.522354e-01 4.333111e-02 1.586819e-01 1.250641e-01 5.594738e-02 5.238589e-02 4.980521e-02 2.860654e-02 3.054022e-02 2.062453e-02 1.293082e-02 1.388050e-02 1.151511e-02 2.028154e-01 1.084682e-02
<GCONST> 2.862427e+01
<MIXTURE> 17 4.732866e-02
<MEAN> 39
 2.029214e+01 -8.549115e+00 7.884270e-01 -2.377558e+00 3.954721e+00 1.739431e+00 -4.110658e-01 5.205663e-01 1.518381e+00 -3.643193e-01 -3.068523e-01 2.004300e+01 1.928808e+01 -4.501678e-02 -6.841341e-02 1.129375e-01 1.296251e-01 -1.923550e-02 -6.658620e-02 -1.112762e-02 4.895519e-02 2.890072e-02 -6.405514e-02 -8.868129e-03 -6.996685e-02 -4.246174e-02 -7.964317e-03 4.983066e-02 1.120409e-01 -1.332992e-02 -9.957355e-02 -8.078274e-02 6.315561e-02 4.542550e-02 -2.442627e-02 -8.892169e-03 -1.989832e-02 -4.196282e-02 -9.384005e-03
<VARIANCE> 39
 1.235004e+01 1.574320e+01 7.747506e+00 7.574265e+00 5.068790e+00 4.226497e+00 5.341861e+00 3.826211e+00 2.525650e+00 2.712762e+00 2.018142e+00 8.613907e+00 1.097913e+00 1.593060e-01 1.494059e-01 1.328057e-01 8.667976e-02 8.922487e-02 7.506220e-02 6.201171e-02 4.685261e-02 3.264842e-02 3.100613e-02 3.178553e-02 8.231200e-02 3.900816e-03 2.678539e-02 2.694828e-02 2.033130e-02 1.199301e-02 1.132823e-02 8.374988e-03 8.502017e-03 5.696537e-03 5.460502e-03 4.715775e-03 4.142848e-03 2.978029e-02 4.540161e-04
<GCONST> -7.478727e+00
<MIXTURE> 18 3.537458e-02
<MEAN> 39
 2.080482e+01 4.793471e+00 6.968327e+00 2.089557e+00 8.073441e-01 -8.122197e-01 -1.411275e-01 -7.513213e-01 1.105488e-02 8.083133e-01 -1.855089e-01 1.816876e+01 1.785910e+01 4.752943e-02 -1.984938e-01 -1.342210e-01 -1.852777e-01 8.360680e-02 5.741838e-03 -1.052194e-02 1.986690e-01 6.357709e-02 -1.382471e-01 2.439640e-02 -2.734833e-01 -1.866516e-02 -7.759707e-02 -4.485009e-01 -6.502974e-02 -3.243207e-01 -7.025589e-02 -4.418916e-02 7.776741e-02 1.577763e-01 2.915921e-02 -7.257251e-02 -3.375955e-02 7.797106e-02 6.492980e-02
<VARIANCE> 39
 1.171556e+01 2.637615e+01 7.765041e+00 6.139364e+00 5.806509e+00 3.827175e+00 3.634144e+00 2.750716e+00 2.344373e+00 1.929673e+00 1.655618e+00 4.305276e+01 1.581188e+00 6.857738e-01 2.086062e+00 5.481492e-01 8.397064e-01 3.349332e-01 2.492055e-01 1.578034e-01 2.807182e-01 1.127705e-01 1.061056e-01 8.067441e-02 1.425777e+00 7.606319e-02 1.195036e-01 1.564532e-01 8.486091e-02 6.881806e-02 7.018052e-02 4.346713e-02 3.073853e-02 2.884071e-02 2.033472e-02 1.733113e-02 1.574433e-02 2.729979e-01 1.442408e-02
<GCONST> 3.814775e+01
<MIXTURE> 19 3.217956e-02
<MEAN> 39
 2.010349e+01 -8.377236e+00 2.809721e+00 -1.913434e+00 3.279369e+00 3.726403e-01 -6.303942e-01 1.690102e+00 1.707197e+00 -1.012508e+00 -6.372462e-01 2.002936e+01 1.916225e+01 -4.624046e-01 9.690787e-02 9.816302e-01 2.866116e-01 -6.429585e-01 -5.926657e-01 4.018335e-01 3.113436e-01 -1.032726e-01 -1.679505e-01 -1.276953e-01 -6.870360e-02 -8.087396e-02 4.230535e-02 4.156562e-01 1.513543e-01 -6.100187e-02 -1.782067e-01 -1.113893e-03 1.140908e-01 -4.319859e-02 -1.262785e-01 6.267893e-02 5.076026e-02 -2.535727e-02 -1.600868e-02
<VARIANCE> 39
 1.249415e+01 1.846285e+01 8.156903e+00 5.787720e+00 5.519727e+00 3.996101e+00 4.683896e+00 3.305625e+00 2.724332e+00 2.716125e+00 2.019087e+00 1.287678e+01 1.120567e+00 2.452052e-01 4.876959e-01 2.002740e-01 3.150635e-01 1.735016e-01 1.563060e-01 1.419451e-01 8.559538e-02 1.227559e-01 7.400406e-02 8.603633e-02 2.793291e-01 5.835043e-03 4.557779e-02 8.469946e-02 2.783200e-02 2.524214e-02 2.764196e-02 2.315115e-02 2.370859e-02 1.872902e-02 1.743873e-02 1.402626e-02 9.650137e-03 4.012582e-02 7.099644e-04
<GCONST> 1.438720e+01
<MIXTURE> 20 3.251794e-02
<MEAN> 39
 2.459937e+01 1.080173e+00 9.586496e-01 -5.152505e+00 1.467765e+00 8.513468e-01 -4.625980e-01 -9.766147e-01 -3.069839e-01 2.246789e+00 3.906767e-01 1.983894e+01 1.908488e+01 2.532289e-01 1.170770e+00 1.093839e-01 -3.259946e-02 -1.639753e-01 2.664758e-01 9.492369e-02 -1.483600e-01 -2.223606e-01 -2.153594e-01 5.053576e-02 -3.352187e-02 -1.334959e-01 -1.833958e-01 -2.670565e-03 1.167225e-01 1.498347e-01 -1.706848e-02 -9.008465e-02 4.940723e-02 9.257363e-02 4.284242e-02 -9.339149e-02 -5.855677e-02 -1.241386e-01 -4.142726e-02
<VARIANCE> 39
 9.503957e+00 2.399762e+01 7.681380e+00 1.215233e+01 3.503420e+00 5.088411e+00 3.480240e+00 2.381621e+00 3.851308e+00 3.011617e+00 1.922186e+00 2.368100e+01 1.574536e+00 3.891891e-01 5.998533e-01 3.061889e-01 3.842826e-01 1.720954e-01 2.112643e-01 1.437028e-01 1.519755e-01 1.182379e-01 1.224063e-01 1.096474e-01 5.398099e-01 1.657023e-02 7.954687e-02 8.573118e-02 3.149179e-02 4.134915e-02 2.419185e-02 2.099485e-02 1.805760e-02 1.419634e-02 1.903983e-02 1.698569e-02 1.092473e-02 1.359849e-01 3.043524e-03
<GCONST> 2.363691e+01
<MIXTURE> 21 1.904333e-02
<MEAN> 39
 8.680763e+00 5.786817e+00 7.555290e+00 2.282127e+00 1.197409e+00 -1.519472e+00 4.676864e-01 -1.576008e+00 -4.306653e-01 -8.817328e-01 8.180768e-03 7.016094e-01 1.284852e+01 -2.939832e+00 -3.860073e-01 -1.519939e+00 1.663799e-01 6.770430e-01 2.170585e-01 8.451047e-02 1.772811e-01 4.479573e-01 -2.532188e-01 3.461555e-01 -3.379283e+00 -1.361632e+00 -7.520863e-02 -5.401155e-01 -3.668095e-02 -3.634899e-01 -1.154996e-01 -7.893849e-02 4.848823e-02 5.692210e-02 6.926687e-02 9.266635e-02 2.909222e-02 6.829645e-01 2.493484e-01
<VARIANCE> 39
 3.158858e+01 1.433797e+01 1.021715e+01 5.817856e+00 6.007390e+00 5.311631e+00 3.519092e+00 2.858170e+00 2.227825e+00 1.977693e+00 2.070250e+00 2.126392e-01 5.592264e+00 2.486033e+00 1.602605e+00 1.444938e+00 6.212531e-01 3.026917e-01 3.366862e-01 2.591893e-01 2.483010e-01 2.012464e-01 1.804931e-01 1.219406e-01 2.136144e+00 2.757288e-01 3.737049e-01 1.865786e-01 1.532522e-01 6.244934e-02 5.225062e-02 5.078442e-02 3.221007e-02 2.632315e-02 2.430331e-02 1.836282e-02 1.757703e-02 2.278739e-01 7.039929e-02
<GCONST> 4.412645e+01
<MIXTURE> 22 4.213497e-02
<MEAN> 39
 1.842899e+01 -6.846513e+00 4.145088e+00 -4.608925e+00 2.073624e-01 -1.142161e+00 1.607954e+00 1.139305e+00 1.132731e+00 6.966884e-01 -9.482045e-01 2.010041e+01 1.960693e+01 1.055212e-01 -1.322717e-02 -3.102227e-02 4.453875e-03 6.758919e-02 2.104962e-01 -4.143306e-02 4.347902e-03 2.616029e-02 7.595966e-02 1.393256e-02 1.270140e+00 1.014793e-01 -3.036828e-01 3.424046e-01 5.508861e-02 1.717618e-01 1.950404e-02 -4.468159e-02 -7.448290e-02 -1.137741e-01 -1.690308e-02 -1.727383e-02 5.482319e-02 -6.100804e-01 -1.835046e-01
<VARIANCE> 39
 1.774080e+01 1.849467e+01 2.434256e+01 7.717924e+00 1.000468e+01 7.713644e+00 4.615877e+00 3.459295e+00 2.353412e+00 3.242653e+00 2.095289e+00 2.508326e+01 1.117979e+00 4.745232e-01 8.244277e-01 2.609104e-01 1.788172e-01 1.584076e-01 1.176483e-01 1.254559e-01 1.093141e-01 5.823147e-02 8.104084e-02 5.546167e-02 2.120913e+00 4.721656e-02 2.009782e-01 9.082496e-02 4.974682e-02 4.612495e-02 2.886868e-02 2.188879e-02 1.989663e-02 1.762264e-02 1.048048e-02 1.225042e-02 1.032777e-02 2.821604e-01 1.710755e-02
<GCONST> 2.883381e+01
<MIXTURE> 23 2.622655e-02
<MEAN> 39
 1.348570e+01 2.049761e+00 1.522233e+01 -1.695587e+00 -2.746653e+00 -3.018157e+00 1.092956e+00 -2.555796e+00 -1.632040e+00 1.644807e+00 -6.444534e-01 1.910527e+01 1.766482e+01 -1.099029e+00 9.670254e-01 -1.206663e+00 1.066469e+00 5.868996e-01 1.977756e-01 4.781731e-02 -2.195262e-02 1.361498e-01 -3.996433e-01 1.454418e-01 -2.537486e+00 -1.090830e+00 -5.582693e-01 -1.291159e-01 -6.082717e-01 2.038382e-02 2.050666e-01 5.070468e-02 -1.864051e-02 1.434311e-01 1.681875e-01 -1.171299e-01 1.075374e-01 -7.982073e-01 -2.620000e-01
<VARIANCE> 39
 1.348511e+01 2.079318e+01 1.447657e+01 1.192774e+01 4.308221e+00 8.760173e+00 5.218841e+00 4.760739e+00 3.613825e+00 2.770449e+00 2.865770e+00 6.224770e+01 2.295423e+00 1.711898e+00 1.105397e+00 9.291284e-01 3.863260e-01 2.970580e-01 2.971420e-01 2.315644e-01 1.924683e-01 2.099808e-01 1.349222e-01 1.229668e-01 2.637021e+00 2.702735e-01 2.514848e-01 2.156717e-01 1.006108e-01 8.342589e-02 3.890996e-02 5.127391e-02 3.832933e-02 3.029196e-02 2.916786e-02 2.808360e-02 2.030036e-02 5.391180e-01 3.454283e-02
<GCONST> 5.004580e+01
<MIXTURE> 24 2.255323e-02
<MEAN> 39
 4.757240e+00 3.899802e-01 7.029664e+00 2.386207e-01 1.613835e+00 -2.045374e+00 2.423479e+00 -1.109724e+00 1.399675e+00 -9.900843e-01 1.471313e+00 9.918107e+00 1.561093e+01 4.065109e+00 -8.010000e-02 4.354016e-01 -1.754297e-01 -4.861057e-01 -2.113425e-01 -4.388722e-01 1.374937e-01 -3.707467e-01 2.549398e-01 -3.071260e-01 1.810249e+00 1.004858e+00 5.045435e-01 8.189977e-02 -1.353513e-01 -4.443021e-02 -5.353113e-02 -3.216909e-03 -1.641371e-01 8.373421e-02 -8.719691e-02 8.991179e-02 -4.492706e-02 5.081307e-01 4.181419e-02
<VARIANCE> 39
 2.712510e+01 4.194288e+01 1.332706e+01 9.143831e+00 4.311478e+00 3.679715e+00 3.097828e+00 2.540070e+00 1.741561e+00 1.541500e+00 1.372209e+00 8.768334e+01 3.682187e+00 2.728905e+00 2.540415e+00 1.309357e+00 1.066365e+00 4.760641e-01 3.689446e-01 2.784777e-01 1.473854e-01 1.289372e-01 1.153613e-01 8.711985e-02 2.412424e+00 3.452740e-01 3.623271e-01 2.553266e-01 1.372885e-01 9.558190e-02 5.416138e-02 3.439843e-02 4.064811e-02 2.287271e-02 1.708842e-02 1.563217e-02 1.355143e-02 4.540361e-01 3.263852e-02
<GCONST> 4.921038e+01
<MIXTURE> 25 2.750570e-02
<MEAN> 39
 6.097828e+00 -1.311297e-01 5.284205e+00 1.435735e+00 2.747483e+00 -2.413752e-01 2.319187e+00 -2.688331e-01 7.953940e-01 -9.401805e-01 4.739873e-01 1.154708e+00 1.266988e+01 -2.884331e+00 -1.376167e+00 -8.326632e-01 -5.832323e-01 -3.275855e-02 -2.757030e-01 5.477534e-02 -4.646179e-02 2.164156e-01 -9.596404e-02 2.303374e-01 -3.142150e+00 -1.050751e+00 5.248840e-01 2.011234e-01 1.548479e-03 -9.827093e-02 -1.581336e-01 -5.316092e-02 -9.124230e-02 -1.270414e-02 -4.628747e-02 7.232626e-02 -2.184183e-02 6.814148e-01 1.884996e-01
<VARIANCE> 39
 5.053568e+01 1.922371e+01 1.089330e+01 7.613089e+00 4.438665e+00 5.016881e+00 2.844271e+00 3.661049e+00 2.499982e+00 2.147629e+00 2.105673e+00 5.344804e-01 2.367429e+00 2.517339e+00 7.131106e-01 5.699822e-01 3.028844e-01 1.920529e-01 1.822035e-01 1.471490e-01 1.333449e-01 1.222811e-01 9.903534e-02 9.948985e-02 1.728278e+00 1.208565e-01 2.926553e-01 1.422002e-01 8.321404e-02 6.064592e-02 3.188919e-02 3.155697e-02 2.134930e-02 2.053642e-02 1.828353e-02 1.521329e-02 1.379396e-02 2.463056e-01 2.764597e-02
<GCONST> 3.377587e+01
<MIXTURE> 26 3.662395e-02
<MEAN> 39
 1.453295e+01 5.713363e+00 8.289229e+00 3.550171e+00 2.421604e+00 1.859834e-01 1.708033e+00 -4.009761e-01 -7.712629e-02 -6.477001e-01 -2.708534e-01 2.142361e+01 1.625920e+01 -3.352281e+00 -9.923984e-01 -7.487243e-01 -7.015124e-02 4.602180e-01 -3.691905e-02 2.404813e-01 3.927923e-03 3.033788e-01 -2.895017e-01 2.672710e-01 -3.509428e+00 -1.194683e+00 -3.873169e-01 -4.129201e-01 -2.531476e-01 -3.389887e-01 -1.528096e-01 -1.286637e-01 -4.010813e-02 3.507635e-03 3.519322e-02 5.248740e-02 5.985907e-02 -6.738383e-01 -9.728679e-02
<VARIANCE> 39
 2.282474e+01 1.723000e+01 1.243032e+01 6.535449e+00 5.600999e+00 6.084689e+00 3.402063e+00 3.984918e+00 2.525624e+00 2.271542e+00 2.152689e+00 1.047121e+01 2.408549e+00 2.764186e+00 1.468766e+00 1.078146e+00 5.462596e-01 2.806983e-01 2.813624e-01 2.240278e-01 1.864451e-01 1.743162e-01 1.396312e-01 1.353317e-01 1.328516e+00 1.328083e-01 2.389335e-01 1.622779e-01 7.222019e-02 4.613635e-02 2.928279e-02 3.211239e-02 2.470512e-02 2.273049e-02 1.954351e-02 1.663372e-02 1.412623e-02 2.209051e-01 2.475587e-02
<GCONST> 4.072499e+01
<MIXTURE> 27 3.379062e-02
<MEAN> 39
 1.323731e+01 2.440683e+00 1.655455e+01 -4.362852e+00 -2.314007e+00 -1.354339e+00 3.533179e-01 -2.129238e+00 -1.210308e+00 1.851549e+00 -5.045103e-01 2.036591e+01 1.879362e+01 -1.234524e-01 9.306964e-01 2.121989e-01 1.914020e-01 1.661527e-01 2.987699e-01 -6.900615e-02 -3.243832e-01 4.252445e-02 -2.907746e-02 -1.875435e-01 -1.460815e-01 -1.815788e-01 1.567914e-01 -5.481382e-02 -4.537836e-01 3.182866e-01 1.029024e-01 -7.873453e-02 2.031332e-02 1.151795e-01 3.907025e-02 -1.082826e-01 4.111042e-02 -2.158276e-01 -7.987630e-02
<VARIANCE> 39
 1.302355e+01 1.819344e+01 8.119698e+00 7.316920e+00 3.967158e+00 5.386108e+00 3.805846e+00 3.437310e+00 3.314330e+00 2.241251e+00 2.235579e+00 2.372109e+01 1.193986e+00 7.795408e-01 9.109907e-01 7.038925e-01 6.513063e-01 1.920734e-01 2.608498e-01 1.516304e-01 1.941465e-01 1.478095e-01 1.204828e-01 8.707492e-02 6.655195e-01 3.116228e-02 1.100935e-01 7.322095e-02 7.939092e-02 4.934268e-02 4.235199e-02 2.944095e-02 3.132882e-02 1.791120e-02 1.829478e-02 1.632337e-02 1.450588e-02 1.942736e-01 9.930992e-03
<GCONST> 3.189417e+01
<MIXTURE> 28 2.471625e-02
<MEAN> 39
 2.624735e+01 -1.574461e+00 9.779715e-02 1.882803e+00 2.901953e+00 -4.310400e+00 -3.190949e+00 1.698019e+00 5.043443e-02 4.185361e-01 7.175427e-01 1.992208e+01 1.889001e+01 3.230603e-03 -3.596479e-01 3.793833e-01 2.662070e-01 -1.832618e-01 -4.481683e-01 -4.740152e-02 3.438669e-01 -1.124181e-01 -3.480320e-02 -7.129146e-02 7.723266e-01 1.086088e-01 -8.734674e-01 6.160060e-02 5.628538e-01 -1.884805e-01 -2.481668e-01 1.189698e-01 3.380719e-01 -1.023019e-01 -6.400804e-02 -4.533881e-03 1.208780e-02 -3.446532e-01 -9.930773e-02
<VARIANCE> 39
 1.215839e+01 1.615877e+01 1.561619e+01 7.176888e+00 6.174569e+00 6.078587e+00 3.744323e+00 3.817753e+00 2.398137e+00 1.830644e+00 1.825750e+00 3.416222e+01 1.280970e+00 3.366265e+00 8.055864e-01 2.310905e+00 5.137683e-01 6.315195e-01 3.450174e-01 5.222308e-01 1.787368e-01 2.978874e-01 1.278098e-01 1.139595e-01 2.629837e+00 1.261724e-01 3.060074e-01 1.861115e-01 1.514103e-01 6.150273e-02 5.485927e-02 7.135779e-02 3.707694e-02 4.335958e-02 2.163995e-02 1.970384e-02 1.484552e-02 2.896021e-01 9.308771e-03
<GCONST> 4.714845e+01
<MIXTURE> 29 2.296804e-02
<MEAN> 39
 1.488769e+01 -1.033435e+00 1.387638e+01 -2.130324e+00 -2.804511e+00 -4.621210e+00 3.284583e-01 -3.917652e-01 -1.836354e+00 1.720163e+00 2.269236e-01 2.264561e+01 1.959508e+01 1.004948e+00 -7.595310e-01 3.471517e-01 -8.676019e-02 -2.499460e-01 -1.596871e-01 -1.463888e-01 3.066356e-01 -3.649085e-01 3.881662e-01 -3.439434e-02 1.679177e+00 1.564621e-01 -7.992287e-01 3.242159e-01 -5.994098e-01 2.654490e-01 2.915447e-01 1.051333e-01 9.924876e-02 -1.730238e-02 1.587839e-01 -1.863633e-01 8.613283e-02 -9.972239e-01 -2.676934e-01
<VARIANCE> 39
 9.837204e+00 1.358068e+01 9.695960e+00 6.449758e+00 2.965489e+00 3.470182e+00 2.989153e+00 2.914098e+00 2.189431e+00 1.666944e+00 1.967507e+00 9.330897e+00 8.004778e-01 1.537277e+00 1.073924e+00 8.481784e-01 4.809411e-01 2.185120e-01 1.859557e-01 2.195856e-01 2.106839e-01 1.287057e-01 1.255847e-01 9.027223e-02 2.355454e+00 8.423407e-02 3.665674e-01 1.333742e-01 1.372608e-01 7.768632e-02 3.450255e-02 4.294540e-02 3.006291e-02 2.865657e-02 1.982888e-02 1.664814e-02 1.740661e-02 3.768787e-01 2.959766e-02
<GCONST> 3.667314e+01
<MIXTURE> 30 1.307211e-02
<MEAN> 39
 1.874255e+01 -3.072626e+00 1.073511e+01 8.251252e-01 -2.546209e+00 -5.574741e+00 4.066264e-01 1.650323e+00 -2.925098e+00 1.253977e+00 1.308461e+00 2.121133e+01 1.935461e+01 -1.706990e+00 6.255306e-01 2.190700e+00 -9.971293e-01 -7.969645e-01 6.100651e-01 6.656151e-01 -7.168751e-01 -3.090766e-01 4.454153e-01 -1.437267e-01 -3.935170e-02 -4.834360e-02 7.765297e-02 3.683164e-01 -2.060224e-01 -9.014697e-02 2.788874e-01 2.371739e-01 -1.817579e-01 -1.867988e-01 2.022711e-01 -1.162104e-02 -1.042306e-01 -1.238219e-01 -5.076760e-02
<VARIANCE> 39
 1.554843e+01 1.417758e+01 2.024786e+01 8.552913e+00 4.893681e+00 6.173586e+00 3.747649e+00 3.977846e+00 2.554614e+00 2.651350e+00 1.648515e+00 1.282452e+01 8.590283e-01 5.746620e-01 5.548154e-01 5.454987e-01 2.291639e-01 2.954737e-01 2.083191e-01 1.999751e-01 1.468643e-01 1.498086e-01 7.040162e-02 8.890693e-02 2.957252e-01 1.056156e-02 1.088704e-01 5.335996e-02 1.242476e-01 6.352123e-02 3.578503e-02 4.653041e-02 2.768607e-02 3.430030e-02 1.683977e-02 1.891780e-02 9.004415e-03 9.349588e-02 2.335950e-03
<GCONST> 2.633205e+01
<MIXTURE> 31 3.787681e-02
<MEAN> 39
 2.616128e+01 8.277069e+00 2.107227e+00 -6.392050e+00 -2.474729e+00 4.289436e-01 8.159414e-01 1.069744e+00 -5.341885e-01 1.045043e-01 -6.209525e-03 2.039769e+01 1.920374e+01 1.655057e-02 -5.918353e-01 -3.560413e-01 -5.438136e-02 2.544385e-01 1.625593e-01 1.021984e-01 9.851512e-02 -6.978443e-02 -6.205349e-02 1.245689e-01 -5.990795e-02 -5.811905e-03 -1.715317e-01 -3.738334e-01 -5.132965e-02 1.807138e-01 2.469668e-01 1.826935e-02 -4.393135e-02 -7.255953e-02 -2.056141e-03 3.148256e-02 4.896088e-02 -1.991617e-01 -4.562553e-02
<VARIANCE> 39
 8.155751e+00 1.201606e+01 6.017108e+00 9.116462e+00 3.571249e+00 3.490088e+00 2.777259e+00 1.914241e+00 2.083614e+00 1.666844e+00 1.170987e+00 1.721491e+01 1.195601e+00 3.951548e-01 1.521475e+00 4.934788e-01 7.501513e-01 3.503453e-01 2.449505e-01 1.149823e-01 1.189682e-01 1.309266e-01 1.026229e-01 9.311153e-02 5.686556e-01 3.971368e-02 9.029748e-02 7.053402e-02 4.038203e-02 5.768671e-02 2.509564e-02 3.030005e-02 2.315115e-02 1.457044e-02 1.801541e-02 1.414290e-02 1.040710e-02 1.634344e-01 5.286413e-03
<GCONST> 2.397468e+01
<MIXTURE> 32 2.719940e-02
<MEAN> 39
 7.975085e+00 -1.230662e+00 4.837541e+00 3.967087e-01 2.301497e+00 -1.049050e+00 2.205297e+00 9.920456e-02 1.213097e+00 -7.739567e-01 8.330360e-01 1.068122e+01 1.336230e+01 -3.020603e-01 -1.134186e-01 -1.756983e-01 -1.857539e-02 -2.643377e-02 -1.307681e-02 -3.718740e-02 4.598306e-02 3.339686e-02 -2.301056e-02 1.548661e-02 -5.307122e-01 -1.750750e-01 3.634208e-02 2.194122e-01 -8.025087e-03 1.511776e-02 -3.491816e-02 2.175167e-02 -3.465401e-02 -1.729702e-02 -2.873179e-02 2.218449e-02 -2.112471e-02 -1.540903e-01 1.077172e-02
<VARIANCE> 39
 4.408629e+01 2.419394e+01 1.104227e+01 7.598849e+00 4.882493e+00 5.093914e+00 3.033995e+00 3.510401e+00 2.511159e+00 2.249206e+00 2.130653e+00 1.272058e+02 2.232899e+00 2.708311e+00 1.124463e+00 4.159434e-01 3.296856e-01 1.703593e-01 1.754096e-01 1.354477e-01 1.253739e-01 1.000366e-01 9.085620e-02 8.627509e-02 3.592970e+00 2.890997e-01 3.883997e-01 1.420633e-01 6.870306e-02 4.588288e-02 2.754701e-02 2.619586e-02 2.040352e-02 1.855274e-02 1.748000e-02 1.365003e-02 1.249846e-02 6.762655e-01 4.017274e-02
<GCONST> 4.112453e+01
<TRANSP> 3
 0.000000e+00 1.000000e+00 0.000000e+00
 0.000000e+00 9.999998e-07 9.999990e-01
 0.000000e+00 0.000000e+00 0.000000e+00
<ENDHMM>
~h "child"
<BEGINHMM>
<NUMSTATES> 3
<STATE> 2
<NUMMIXES> 32
<MIXTURE> 1 5.122841e-02
<MEAN> 39
 1.969992e+01 4.502256e+00 8.404972e+00 1.468429e+00 -1.468563e+00 -1.952331e+00 -7.293131e-02 -8.286160e-01 -2.155376e-01 -1.736689e-01 1.394272e-01 2.197901e+01 1.787276e+01 -4.978060e-02 5.460430e-01 1.119767e-01 3.569915e-01 1.032799e-01 1.102391e-01 4.670631e-04 -1.109673e-01 -1.382716e-02 -5.769004e-03 -1.325237e-02 -2.700236e-02 -1.096891e-01 -1.905577e-01 -3.887826e-01 -1.284922e-01 -2.274011e-01 7.322998e-02 -1.486865e-02 6.475879e-02 8.159300e-02 8.873183e-04 -4.145881e-02 2.143901e-02 -2.329788e-02 -2.202939e-03
<VARIANCE> 39
 9.534654e+00 1.767041e+01 8.942721e+00 6.949008e+00 6.276258e+00 4.106968e+00 4.063559e+00 3.603472e+00 2.853703e+00 2.697608e+00 2.727572e+00 3.128292e+01 1.615027e+00 5.438941e-01 1.506906e+00 4.938551e-01 6.449392e-01 2.868861e-01 1.971263e-01 1.961061e-01 2.239358e-01 1.043881e-01 9.128648e-02 8.712883e-02 6.876188e-01 4.254816e-02 9.687692e-02 1.095119e-01 5.912757e-02 6.257650e-02 5.611608e-02 2.932495e-02 3.404969e-02 2.642908e-02 1.862489e-02 1.554750e-02 1.371665e-02 1.637418e-01 1.118074e-02
<GCONST> 3.355957e+01
<MIXTURE> 2 1.949503e-02
<MEAN> 39
 2.054230e+01 2.749900e+00 6.668059e+00 7.631330e-01 -1.475323e+00 -3.376204e+00 -7.520723e-01 -5.082669e-01 -4.023697e-02 -3.122619e-01 2.343015e-01 2.028221e+01 1.813332e+01 1.990631e+00 -3.475671e-01 -3.845411e-01 6.704780e-02 -1.670952e-01 -2.264366e-01 -1.838587e-01 3.036376e-01 -1.249150e-01 1.566148e-01 -2.608419e-02 3.001929e+00 6.734602e-01 -9.817047e-01 -3.117639e-01 -1.775336e-01 -1.689291e-01 1.465150e-01 6.069191e-02 1.322547e-01 2.143012e-02 3.808456e-02 -2.094231e-02 6.515088e-02 -5.453078e-01 -2.439557e-01
<VARIANCE> 39
 1.890119e+01 3.086863e+01 1.480010e+01 8.636647e+00 6.108243e+00 6.479786e+00 4.971276e+00 3.495828e+00 2.464853e+00 2.620884e+00 2.630992e+00 6.895980e+01 1.954171e+00 3.218951e+00 1.701918e+00 8.525923e-01 7.934859e-01 4.204456e-01 2.655234e-01 2.901258e-01 1.802282e-01 1.558695e-01 1.242310e-01 1.184215e-01 2.279551e+00 1.933155e-01 2.427540e-01 1.934795e-01 1.274222e-01 6.860945e-02 5.633539e-02 4.070895e-02 4.167334e-02 3.028665e-02 2.052494e-02 1.942017e-02 1.719831e-02 4.610252e-01 2.204882e-02
<GCONST> 4.940626e+01
<MIXTURE> 3 1.767668e-02
<MEAN> 39
 3.760883e+00 9.892604e+00 8.404828e+00 1.663531e+00 2.100747e+00 -2.992769e+00 2.055100e+00 -2.110740e+00 5.540340e-01 -1.712634e+00 1.416790e+00 1.962166e+01 1.682978e+01 3.261670e-01 -2.952333e-01 3.372544e-01 -3.842819e-01 -3.668884e-01 -1.012625e-01 -7.425286e-02 -1.066453e-01 -4.007730e-02 1.430568e-01 2.420182e-02 3.704177e-01 2.203579e-01 5.318165e-01 -4.398212e-01 3.600633e-02 -2.806227e-01 -2.331327e-01 -4.545340e-02 -1.073294e-01 5.803424e-02 -3.603521e-02 7.837387e-02 -4.171933e-02 1.387223e-01 6.791303e-02
<VARIANCE> 39
 3.758127e+01 1.969426e+01 6.253553e+00 6.569439e+00 5.521173e+00 5.258394e+00 2.834184e+00 2.375553e+00 1.744777e+00 2.019083e+00 2.181602e+00 6.051561e+01 1.523754e+00 4.292042e+00 1.331871e+00 5.560037e-01 6.605482e-01 5.220329e-01 2.234502e-01 1.972823e-01 1.007683e-01 8.814833e-02 1.178655e-01 8.354972e-02 3.205163e+00 1.420810e-01 3.212514e-01 1.170110e-01 9.303469e-02 6.607497e-02 4.702194e-02 3.655931e-02 2.421294e-02 2.042560e-02 1.339604e-02 1.485011e-02 1.464063e-02 4.838701e-01 2.087639e-02
<GCONST> 4.098548e+01
<MIXTURE> 4 5.780193e-02
<MEAN> 39
 2.163232e+01 -2.478101e+00 3.676984e+00 -8.952292e-01 -7.040203e-01 -3.426729e+00 -4.922682e-01 8.536932e-01 3.955849e-01 3.500650e-01 7.140175e-02 2.302989e+01 1.909564e+01 2.979786e-01 1.153238e-01 -3.446763e-01 6.183130e-02 1.977552e-01 1.040637e-01 -9.147841e-02 -2.361922e-02 6.402700e-02 2.222715e-02 -3.797674e-02 -7.121158e-02 -4.398846e-02 -7.672068e-02 1.274604e-01 9.599561e-02 -5.597384e-02 -9.401644e-03 5.431522e-02 6.476301e-03 -5.844019e-02 -1.640736e-02 5.662695e-03 1.636809e-02 4.908716e-03 -9.947973e-03
<VARIANCE> 39
 1.235486e+01 2.641205e+01 2.107059e+01 8.844161e+00 8.288614e+00 7.827955e+00 5.371152e+00 3.645974e+00 4.051877e+00 3.023739e+00 2.762304e+00 1.933572e+01 1.457886e+00 5.721799e-01 7.675765e-01 8.818184e-01 3.692828e-01 2.581016e-01 1.856752e-01 1.840419e-01 1.736146e-01 1.153873e-01 1.163981e-01 9.221166e-02 2.240945e-02 9.777796e-03 4.795219e-02 5.310264e-02 4.977374e-02 3.666183e-02 2.588469e-02 2.059468e-02 2.076136e-02 1.552928e-02 1.471316e-02 1.218426e-02 1.053341e-02 1.494095e-03 1.078696e-03
<GCONST> 1.878047e+01
<MIXTURE> 5 2.923454e-02
<MEAN> 39
 1.717832e+01 -5.006169e+00 7.399681e+00 -1.724681e+00 -2.145026e+00 -3.724197e+00 1.473905e+00 8.474624e-01 -1.215786e+00 -4.936729e-01 1.148537e+00 2.353222e+01 1.881304e+01 -5.703459e-01 1.041282e+00 1.258728e+00 -5.198848e-01 -6.688403e-01 3.486430e-01 3.072156e-01 -5.249801e-01 -1.194875e-01 3.218347e-01 -2.527533e-02 -1.175719e-01 -6.414916e-02 7.583185e-02 3.287583e-01 -5.263812e-02 3.374576e-03 1.437606e-01 1.122525e-01 -1.729400e-01 -1.166754e-01 1.099528e-01 4.051271e-02 -9.404061e-02 5.312539e-03 -1.966666e-02
<VARIANCE> 39
 1.524019e+01 1.776294e+01 1.041928e+01 1.017102e+01 1.113284e+01 9.498867e+00 3.929281e+00 3.836646e+00 2.666209e+00 4.132252e+00 2.471520e+00 2.132085e+01 1.460249e+00 7.297311e-01 6.823961e-01 4.747629e-01 6.446736e-01 2.449866e-01 2.248473e-01 2.106240e-01 1.592319e-01 1.484050e-01 1.060709e-01 1.054578e-01 3.123569e-01 1.208242e-02 6.189216e-02 4.851922e-02 5.820251e-02 7.327893e-02 3.754747e-02 3.378300e-02 2.358802e-02 2.307266e-02 1.505212e-02 1.974583e-02 1.074024e-02 6.761828e-02 1.322594e-03
<GCONST> 2.847416e+01
<MIXTURE> 6 3.227472e-02
<MEAN> 39
 2.533456e+01 6.304121e+00 -9.159297e-01 -6.905760e+00 -1.702473e+00 -3.192404e-01 2.796364e-01 -1.253491e-01 -5.634051e-01 1.554627e-01 6.656462e-02 2.410867e+01 1.938424e+01 4.966918e-02 -4.389217e-01 -2.326936e-01 5.247102e-02 2.176516e-01 1.627764e-01 9.314357e-02 -6.429712e-02 -1.183967e-01 2.942121e-02 1.264517e-01 -1.593626e-01 -2.720946e-02 -1.041123e-01 -2.469434e-01 4.465142e-02 1.659836e-01 1.241493e-01 -3.474993e-02 -4.814019e-02 -3.937495e-02 3.149290e-02 2.785224e-02 3.526249e-03 -1.684240e-01 -3.843701e-02
<VARIANCE> 39
 9.540650e+00 1.340951e+01 6.703645e+00 7.720680e+00 6.887356e+00 4.104753e+00 3.333166e+00 2.777754e+00 2.161196e+00 2.066275e+00 2.032661e+00 1.690724e+01 1.515195e+00 3.078396e-01 1.272680e+00 3.056602e-01 3.323596e-01 3.487101e-01 1.559824e-01 1.097206e-01 1.232254e-01 1.048445e-01 1.152519e-01 8.977899e-02 2.548740e-01 2.560763e-02 5.823000e-02 4.801994e-02 3.011631e-02 3.439317e-02 2.582906e-02 2.383277e-02 1.694306e-02 1.525802e-02 1.554562e-02 1.233409e-02 1.213262e-02 1.360861e-01 2.897277e-03
<GCONST> 1.997935e+01
<MIXTURE> 7 2.246566e-02
<MEAN> 39
 8.821157e+00 4.016133e+00 6.616898e+00 -9.951324e-01 -4.917056e-01 -2.323886e+00 -3.688713e-01 -1.671489e+00 2.942938e-01 -5.879446e-01 4.106868e-01 7.683836e-01 1.320230e+01 -2.700793e+00 -2.462346e-01 -8.696637e-01 7.803730e-01 6.631470e-01 2.671846e-01 3.530392e-01 2.322229e-01 1.686180e-01 1.021930e-02 2.387669e-01 -3.811619e+00 -1.347738e+00 -1.240951e-01 -3.829283e-01 -6.584060e-02 -2.296751e-01 -5.291303e-03 -2.301326e-02 7.919846e-02 5.632560e-02 4.486091e-02 1.171696e-02 1.307298e-03 8.169272e-01 2.015831e-01
<VARIANCE> 39
 4.397541e+01 1.969238e+01 2.192105e+01 1.400222e+01 9.483588e+00 5.208471e+00 5.066020e+00 4.262320e+00 3.895688e+00 3.746586e+00 2.636541e+00 2.784806e-01 6.842769e+00 2.986664e+00 1.731898e+00 1.565226e+00 8.906739e-01 4.238563e-01 2.753737e-01 3.046538e-01 2.516545e-01 2.322057e-01 2.105579e-01 1.645730e-01 3.398534e+00 3.671564e-01 4.346462e-01 2.139550e-01 1.353505e-01 1.037313e-01 7.051355e-02 5.232248e-02 4.076772e-02 3.499452e-02 3.158404e-02 2.802857e-02 2.455009e-02 3.818015e-01 7.154817e-02
<GCONST> 5.496048e+01
<MIXTURE> 8 2.954827e-02
<MEAN> 39
 1.253498e+01 1.486845e+00 5.794351e+00 1.669544e+00 2.057542e+00 -4.243265e-01 1.985427e+00 1.491364e-01 1.000574e+00 2.364559e-02 1.064212e+00 8.876974e+00 1.381811e+01 -1.550341e-01 2.445317e-01 -8.194584e-02 6.787077e-02 2.159503e-02 3.441020e-02 -2.430182e-02 2.350645e-02 3.872216e-03 9.639484e-03 -1.042618e-02 -3.072162e-01 -1.180534e-01 -5.403255e-02 -3.556536e-02 -1.986778e-02 -2.554199e-02 -1.235416e-02 -1.039088e-02 -1.260690e-02 -1.348617e-02 -1.213271e-02 -3.781308e-03 -3.071015e-03 -6.804559e-02 -1.027116e-02
<VARIANCE> 39
 3.886555e+01 2.925659e+01 7.054140e+00 5.157567e+00 3.694536e+00 3.159664e+00 2.147654e+00 2.083306e+00 1.816544e+00 1.589026e+00 1.305745e+00 7.104213e+01 2.504173e+00 4.679989e-01 3.619064e-01 1.498647e-01 1.136279e-01 8.816421e-02 7.221008e-02 6.118365e-02 5.718283e-02 4.620914e-02 3.885369e-02 3.583320e-02 3.247567e+00 5.013110e-02 6.178929e-02 4.793020e-02 2.147080e-02 1.690587e-02 1.324376e-02 1.142441e-02 9.594718e-03 8.637673e-03 7.153090e-03 6.242984e-03 5.912698e-03 5.395701e-01 6.168661e-03
<GCONST> 1.195397e+01
<MIXTURE> 9 4.927328e-02
<MEAN> 39
 1.782207e+01 -7.875777e+00 8.321157e-01 -3.291867e+00 2.589236e+00 -1.033591e+00 -1.218152e-01 5.081751e-01 8.333644e-01 -1.167709e+00 -4.010235e-01 2.359834e+01 1.938572e+01 1.345917e-01 1.008043e-01 3.113507e-02 5.178277e-02 2.142897e-02 4.176064e-02 -6.240979e-02 -3.048063e-02 8.253345e-03 6.904680e-02 3.307320e-02 -2.052339e-03 -3.373378e-02 1.913849e-02 9.185959e-02 5.280569e-02 -2.678183e-02 -6.163888e-02 -3.112979e-02 1.210420e-02 4.365357e-03 -4.010003e-03 2.658817e-03 2.207181e-03 -1.824300e-01 -2.153396e-02
<VARIANCE> 39
 1.757802e+01 1.931757e+01 1.063830e+01 9.382234e+00 9.365645e+00 5.644269e+00 5.539753e+00 3.396021e+00 4.179886e+00 4.062224e+00 2.932258e+00 1.746549e+01 1.565391e+00 1.899521e-01 2.212604e-01 1.158059e-01 9.839477e-02 8.553010e-02 6.094550e-02 6.323890e-02 5.606330e-02 5.232485e-02 5.642477e-02 4.405244e-02 5.965288e-01 9.132746e-03 2.524482e-02 2.574415e-02 1.805069e-02 1.176663e-02 1.188888e-02 8.283407e-03 9.105505e-03 7.263371e-03 6.992437e-03 6.828165e-03 5.613462e-03 1.389960e-01 1.078888e-03
<GCONST> 4.941236e+00
<MIXTURE> 10 2.385985e-02
<MEAN> 39
 1.056478e+01 -1.063913e+01 1.259375e+00 -6.602934e+00 8.168091e-01 -2.412549e+00 7.734075e-01 -1.117695e+00 -1.415735e+00 -3.541294e+00 -1.332164e+00 2.807641e+01 2.044839e+01 -7.019988e-03 1.111321e-01 1.694611e-01 1.003931e-02 -1.074020e-01 -1.857445e-02 -1.722681e-02 -3.723366e-02 -3.633818e-03 -1.081662e-02 -2.041460e-02 6.177009e-01 -1.171633e-02 1.648792e-01 3.445666e-01 1.064934e-01 1.031465e-01 -7.553180e-02 -6.298503e-02 -1.018264e-01 -1.411095e-02 6.118706e-02 8.669610e-02 2.396089e-02 -3.754402e-01 -7.384604e-02
<VARIANCE> 39
 2.048241e+01 1.721966e+01 1.321280e+01 8.615960e+00 1.088823e+01 6.318774e+00 9.037051e+00 3.906827e+00 5.017293e+00 3.212870e+00 3.110155e+00 3.420237e+01 1.093406e+00 5.533341e-01 9.518690e-01 3.584545e-01 3.307533e-01 4.628269e-01 1.932133e-01 2.515205e-01 1.251552e-01 1.398778e-01 1.234339e-01 9.747870e-02 2.546094e+00 2.686348e-02 5.433775e-02 6.123606e-02 2.705887e-02 4.796854e-02 3.276403e-02 2.216038e-02 3.361265e-02 1.586149e-02 1.951728e-02 1.474215e-02 1.551447e-02 4.117506e-01 5.375236e-03
<GCONST> 3.434351e+01
<MIXTURE> 11 5.063001e-02
<MEAN> 39
 1.874304e+01 -4.127039e+00 3.391726e+00 -3.411407e+00 5.913574e-01 -1.373507e+00 -2.505609e-01 5.833172e-02 3.228920e-01 -3.933616e-01 1.641968e-01 2.283630e+01 1.950583e+01 7.889611e-02 9.563529e-02 4.529153e-02 5.138834e-02 -2.862140e-02 -4.385502e-03 -5.028880e-03 -4.484244e-03 -1.112058e-02 7.754193e-03 2.004422e-02 -6.150924e-02 -3.006478e-02 6.668814e-03 1.984972e-02 2.545946e-02 -5.225475e-03 -1.974703e-02 -1.686484e-02 7.270936e-03 5.634544e-03 -1.611558e-03 -6.474484e-03 -2.179539e-03 2.232485e-03 -5.418827e-03
<VARIANCE> 39
 2.345913e+01 4.661499e+01 3.119551e+01 1.281545e+01 1.234292e+01 6.967053e+00 4.746504e+00 4.108042e+00 3.438859e+00 3.926303e+00 2.745903e+00 2.598625e+01 1.656790e+00 1.164429e-01 1.397812e-01 9.562025e-02 7.002169e-02 5.422622e-02 4.181270e-02 4.179737e-02 3.838956e-02 3.547515e-02 3.143585e-02 2.870588e-02 1.539407e-02 2.842999e-03 1.546827e-02 1.367028e-02 1.104775e-02 7.920991e-03 7.456839e-03 5.005778e-03 5.082804e-03 4.534609e-03 3.790297e-03 3.698153e-03 3.057514e-03 7.825161e-04 2.295784e-04
<GCONST> -1.374569e+01
<MIXTURE> 12 2.957316e-02
<MEAN> 39
 1.555568e+01 -9.643053e-01 5.789434e+00 -3.939842e+00 -2.530525e+00 -4.175178e+00 -5.470160e-01 -1.733941e+00 -5.880626e-01 -1.073043e+00 -7.312229e-01 2.530115e+01 1.813373e+01 -1.474791e+00 8.043670e-01 1.727172e-01 7.641051e-01 3.915854e-01 2.048598e-01 1.704028e-01 7.551099e-02 2.219221e-01 8.389638e-02 2.901609e-01 -2.943180e+00 -8.963738e-01 -7.622538e-01 -3.202251e-02 -1.396102e-01 6.849491e-02 2.213077e-01 1.363301e-01 1.016129e-01 4.519019e-02 6.901075e-02 -1.343666e-03 6.879632e-02 -9.279523e-01 -2.125580e-01
<VARIANCE> 39
 3.857538e+01 3.136750e+01 3.506322e+01 1.822427e+01 1.010451e+01 6.966580e+00 8.227381e+00 8.548611e+00 6.561149e+00 7.045077e+00 4.723675e+00 8.509486e+01 3.302366e+00 3.878849e+00 1.959622e+00 1.442770e+00 8.586074e-01 4.997876e-01 3.575318e-01 4.108182e-01 3.410378e-01 2.662247e-01 2.541734e-01 2.190648e-01 5.406810e+00 3.426030e-01 3.434283e-01 2.521946e-01 1.579272e-01 1.268154e-01 7.457620e-02 5.061751e-02 5.659908e-02 5.047834e-02 4.616991e-02 4.265306e-02 3.307942e-02 7.772423e-01 3.989337e-02
<GCONST> 6.882038e+01
<MIXTURE> 13 1.547511e-02
<MEAN> 39
 2.543792e+01 7.146288e+00 -7.188902e-01 -7.291005e+00 -2.263113e+00 -1.057624e+00 -7.256015e-02 -1.905989e-01 -6.180610e-01 -3.070717e-01 -5.897592e-01 2.395375e+01 1.931019e+01 1.270731e+00 3.671339e-01 -7.091810e-01 -8.192023e-01 -2.045089e-01 1.371974e-01 -9.297048e-03 1.697273e-01 -1.037940e-01 1.372793e-01 -2.944531e-02 2.912448e+00 5.434719e-01 -1.070226e+00 -5.795299e-01 1.877708e-01 3.117455e-01 2.655262e-01 -7.680675e-03 3.680981e-02 -5.511314e-02 8.558942e-02 -9.005620e-03 8.875479e-02 -7.438236e-01 -2.660750e-01
<VARIANCE> 39
 1.182236e+01 1.106912e+01 7.019324e+00 7.823919e+00 5.142528e+00 3.502610e+00 2.704913e+00 2.147889e+00 1.914638e+00 2.347651e+00 2.154163e+00 4.781517e+01 1.462015e+00 3.127633e+00 2.115971e+00 3.831408e-01 4.916466e-01 5.210773e-01 1.588822e-01 1.323864e-01 1.181843e-01 1.022763e-01 8.751601e-02 1.070411e-01 3.444368e+00 1.839944e-01 2.601035e-01 8.951791e-02 4.963188e-02 5.718927e-02 3.734930e-02 2.591734e-02 2.322225e-02 1.759863e-02 1.957398e-02 1.516230e-02 1.643232e-02 4.384973e-01 1.439790e-02
<GCONST> 3.622668e+01
<MIXTURE> 14 3.786356e-02
<MEAN> 39
 1.214019e+01 1.962027e+00 1.231061e+01 -7.458073e+00 -2.982923e+00 -2.678142e+00 -8.200774e-02 -1.631518e+00 1.262138e+00 5.808560e-01 5.327119e-01 2.398662e+01 1.914025e+01 1.088134e-03 5.577095e-01 3.211305e-01 -9.303686e-03 1.340845e-01 -9.406017e-03 -2.916441e-01 -9.533804e-02 4.320458e-02 5.930245e-03 1.638059e-04 -1.189985e-01 -8.669259e-02 3.318592e-02 -1.714714e-02 -3.410480e-02 8.343509e-02 1.420440e-02 -6.065606e-03 9.632053e-03 5.358081e-03 -3.273720e-02 -2.814796e-02 -8.216510e-03 -1.502324e-01 -4.334611e-02
<VARIANCE> 39
 1.387807e+01 1.950907e+01 1.003211e+01 1.044865e+01 5.589472e+00 3.740719e+00 5.218464e+00 2.857070e+00 2.507853e+00 2.157369e+00 1.965555e+00 1.262355e+01 1.269523e+00 1.933139e-01 3.923960e-01 2.061542e-01 1.303634e-01 1.175460e-01 8.786625e-02 1.456417e-01 8.217031e-02 6.146925e-02 7.190683e-02 5.698627e-02 3.423839e-01 1.796356e-02 2.818738e-02 2.951464e-02 1.885147e-02 1.877895e-02 1.569330e-02 1.143708e-02 1.553020e-02 8.742157e-03 7.743787e-03 7.743792e-03 7.199021e-03 1.185829e-01 2.867748e-03
<GCONST> 9.029600e+00
<MIXTURE> 15 2.763516e-02
<MEAN> 39
 1.484935e+01 3.614673e+00 6.399879e+00 -2.344127e+00 -1.454625e+00 -3.250420e+00 -1.988584e-01 -1.684375e+00 -3.535798e-01 -1.250302e+00 1.217675e-01 3.291051e+00 1.754394e+01 4.471322e+00 2.330246e-01 2.026287e-01 -6.231700e-01 -6.953135e-01 -2.100726e-01 -4.002607e-01 1.442670e-01 -3.112570e-01 6.701397e-02 -3.569858e-01 4.144385e+00 1.252567e+00 -6.727449e-01 -2.574862e-01 -1.834769e-01 -2.232011e-02 1.102801e-01 7.877903e-02 9.378079e-02 8.366228e-02 7.404811e-02 6.110623e-02 4.491851e-02 5.859216e-01 -1.185438e-01
<VARIANCE> 39
 4.551085e+01 1.928233e+01 2.137396e+01 9.712688e+00 5.622561e+00 6.460541e+00 2.983552e+00 2.835324e+00 2.347401e+00 2.105582e+00 2.508866e+00 6.931897e-02 2.441582e+00 1.963600e+00 2.355842e+00 1.586845e+00 8.918449e-01 3.936053e-01 3.368045e-01 2.505504e-01 1.738720e-01 1.417652e-01 1.752239e-01 1.607602e-01 1.919793e+00 1.813966e-01 2.432339e-01 1.037689e-01 6.786805e-02 5.126491e-02 3.448617e-02 3.092165e-02 2.154983e-02 1.599626e-02 1.517474e-02 1.315596e-02 1.384251e-02 2.274618e-01 1.988256e-02
<GCONST> 3.805163e+01
<MIXTURE> 16 3.531902e-02
<MEAN> 39
 2.013927e+01 5.625182e+00 7.380783e+00 3.576512e-01 -4.726814e-01 -1.491433e+00 -3.827007e-01 -1.143583e+00 -2.888381e-01 6.409869e-02 2.931379e-01 2.386006e+01 1.760124e+01 -2.082496e+00 -5.346616e-02 1.461011e-01 4.564044e-01 6.203725e-01 1.233478e-01 2.910213e-01 -6.663841e-02 5.920936e-02 -2.008413e-01 1.116192e-01 -1.644516e+00 -6.930004e-01 -9.010385e-01 -5.947706e-01 -2.048478e-01 -1.914139e-01 7.229485e-02 -4.314758e-02 1.220396e-01 5.187923e-02 8.091659e-02 -2.093083e-02 5.041952e-02 -1.063599e+00 -2.089036e-01
<VARIANCE> 39
 1.640603e+01 1.930906e+01 2.211655e+01 1.091594e+01 7.290855e+00 5.334862e+00 4.265782e+00 3.777318e+00 2.785497e+00 2.619277e+00 2.540498e+00 1.527462e+01 1.704219e+00 1.858287e+00 1.493750e+00 8.414848e-01 5.351526e-01 2.998827e-01 2.486051e-01 2.233919e-01 1.747407e-01 1.460547e-01 1.215250e-01 1.195169e-01 3.472654e+00 1.128694e-01 2.035677e-01 1.115779e-01 8.990845e-02 6.400476e-02 4.454289e-02 3.548372e-02 3.217908e-02 2.435451e-02 1.919583e-02 1.701458e-02 1.693851e-02 2.022873e-01 1.045536e-02
<GCONST> 4.202515e+01
<MIXTURE> 17 4.393288e-02
<MEAN> 39
 2.390650e+01 -1.275878e+00 2.704076e-01 -1.363140e+00 9.745792e-01 -2.728544e+00 -1.890961e+00 -1.312756e-01 8.616427e-01 9.062501e-01 3.964170e-02 2.236466e+01 1.879036e+01 -1.335903e-01 3.075934e-01 2.278347e-01 2.547303e-01 2.251772e-03 -1.759072e-02 9.708391e-02 1.282437e-03 -1.136120e-01 -4.363766e-02 7.425541e-02 -7.798649e-02 -1.401745e-01 -5.010398e-01 7.554706e-03 3.049672e-01 -4.783390e-02 -7.399801e-02 4.131360e-02 1.692335e-01 -2.404351e-03 -4.212691e-02 -8.451470e-02 9.042754e-03 -2.396211e-01 -7.016650e-02
<VARIANCE> 39
 1.283751e+01 2.761882e+01 1.433664e+01 1.496809e+01 7.334095e+00 1.065281e+01 4.714034e+00 4.827281e+00 3.726428e+00 3.138291e+00 2.915887e+00 3.546056e+01 1.984879e+00 1.081277e+00 1.412256e+00 1.090677e+00 4.979946e-01 3.917299e-01 3.864404e-01 2.505846e-01 2.516963e-01 1.847776e-01 1.668695e-01 1.301640e-01 1.089713e+00 6.264441e-02 1.647712e-01 1.395747e-01 8.297414e-02 8.006173e-02 4.918943e-02 4.752345e-02 3.012893e-02 3.556132e-02 2.462113e-02 2.260340e-02 2.004942e-02 2.725929e-01 7.807482e-03
<GCONST> 4.590260e+01
<MIXTURE> 18 2.481592e-02
<MEAN> 39
 2.340267e+01 -2.029225e+00 -2.483940e+00 -4.992687e+00 2.086322e+00 -5.247185e-02 -4.500581e-01 -1.223726e+00 -6.782804e-01 9.332429e-01 5.659722e-01 2.399821e+01 1.945151e+01 -4.437874e-01 -1.417415e+00 1.324682e-01 8.133357e-01 4.636159e-01 -4.267249e-01 -2.809608e-01 1.303996e-01 2.711138e-01 3.399442e-02 -7.908691e-02 -8.546115e-02 -4.594783e-02 -6.407850e-02 1.707431e-01 2.275498e-01 9.840240e-02 -1.923294e-01 -1.699160e-01 2.427684e-02 1.506590e-01 5.226843e-02 -1.246208e-01 -7.916740e-02 -6.523685e-03 -2.477605e-02
<VARIANCE> 39
 1.659884e+01 1.696194e+01 8.173215e+00 9.969284e+00 9.537346e+00 5.444550e+00 5.202026e+00 3.843502e+00 4.081499e+00 3.304492e+00 3.221500e+00 2.206586e+01 1.450470e+00 4.148791e-01 5.547885e-01 3.206531e-01 2.969100e-01 3.181685e-01 2.313833e-01 1.688660e-01 1.752861e-01 1.368382e-01 1.461439e-01 1.310767e-01 4.722587e-01 1.088887e-02 4.451709e-02 6.404924e-02 3.693603e-02 3.898952e-02 3.969934e-02 2.558125e-02 2.891184e-02 1.586853e-02 2.629336e-02 1.690444e-02 1.681711e-02 9.462620e-02 1.260716e-03
<GCONST> 2.691671e+01
<MIXTURE> 19 1.974194e-02
<MEAN> 39
 3.151231e+00 -3.512229e+00 3.850647e+00 -1.392652e+00 1.643497e+00 -2.794050e+00 1.639974e+00 -5.733032e-01 1.568878e+00 -5.354201e-01 1.560306e+00 2.077677e+00 1.369726e+01 -1.192363e+00 -2.986978e-01 5.726776e-02 -2.567497e-01 -1.029412e-01 -2.251287e-01 2.617604e-01 -1.603514e-02 6.005182e-02 -7.556875e-02 1.724911e-01 -4.792512e-02 5.495519e-01 -2.408418e-01 3.586197e-01 7.952818e-02 6.478380e-02 -5.141638e-02 8.255208e-02 1.162303e-03 -3.582071e-03 -4.705639e-02 1.733290e-02 -1.684501e-02 6.620388e-02 -1.533737e-01
<VARIANCE> 39
 5.615469e+01 2.633932e+01 1.581854e+01 1.064901e+01 5.928300e+00 5.188036e+00 3.538584e+00 3.177934e+00 2.774130e+00 1.865257e+00 1.604921e+00 9.529145e-01 3.162281e+00 3.736095e+00 1.121770e+00 5.120981e-01 3.948334e-01 2.252681e-01 2.391117e-01 1.890552e-01 1.258662e-01 1.149972e-01 8.655481e-02 8.390443e-02 8.475296e-02 5.755931e-01 5.754179e-01 2.220776e-01 1.117183e-01 6.508283e-02 4.574427e-02 3.578071e-02 2.866233e-02 2.122713e-02 1.977842e-02 1.419003e-02 1.316714e-02 1.083484e-01 4.530343e-02
<GCONST> 3.760945e+01
<MIXTURE> 20 4.791265e-02
<MEAN> 39
 1.794985e+01 -5.711504e+00 5.115219e+00 -3.167765e+00 -8.121259e-01 -3.051327e+00 1.194762e+00 1.835443e+00 3.041639e-01 -1.223880e+00 8.940368e-02 2.242279e+01 1.880129e+01 2.647377e-01 2.170665e-01 -2.267499e-02 2.305848e-01 1.395497e-01 -1.913880e-02 -2.185532e-01 2.867794e-03 5.995318e-02 7.868224e-02 4.820477e-03 1.826109e-02 -9.293771e-02 -4.561014e-02 3.572574e-01 5.587621e-02 1.825003e-01 6.761539e-02 5.204411e-02 -8.903331e-02 -1.567680e-01 4.654842e-03 4.700498e-02 5.084775e-03 -1.405671e-01 -6.063712e-02
<VARIANCE> 39
 1.263911e+01 1.476019e+01 1.039121e+01 7.085110e+00 7.888225e+00 4.932482e+00 5.148393e+00 2.699146e+00 3.548037e+00 2.675988e+00 2.657451e+00 2.846671e+01 1.586906e+00 5.777186e-01 2.172522e+00 8.893784e-01 5.813361e-01 5.081919e-01 1.899791e-01 3.194622e-01 2.028085e-01 1.532118e-01 1.458015e-01 1.026512e-01 1.072461e+00 5.436580e-02 7.981946e-02 7.267503e-02 4.408817e-02 4.685965e-02 4.026575e-02 2.647711e-02 2.861831e-02 1.702808e-02 1.664663e-02 1.427854e-02 1.292224e-02 2.419308e-01 4.353855e-03
<GCONST> 3.475822e+01
<MIXTURE> 21 2.525923e-02
<MEAN> 39
 1.272558e+01 -4.131888e+00 3.242565e+00 -7.411615e+00 -9.394725e-01 -3.507001e+00 -1.001382e+00 -2.421430e+00 -1.235205e+00 -2.455569e+00 -2.423397e+00 3.096996e+01 2.000785e+01 1.071132e-01 2.344405e-01 -7.491057e-02 -2.030176e-02 3.342298e-03 1.350796e-02 -1.224152e-01 -3.650520e-02 -9.237668e-03 -3.466843e-02 -1.170254e-02 6.675817e-02 -9.040070e-03 5.070021e-02 4.347012e-02 7.004406e-03 2.699693e-02 -2.932305e-02 -8.106208e-03 -3.674130e-03 7.941479e-03 -5.831072e-03 1.258369e-02 1.957040e-02 -4.662212e-03 -6.325767e-03
<VARIANCE> 39
 3.293966e+01 5.195144e+01 4.047828e+01 1.610530e+01 1.228710e+01 7.154064e+00 6.228646e+00 4.669186e+00 4.377857e+00 4.553576e+00 2.385671e+00 7.315518e+00 1.217757e+00 2.422942e-01 3.583693e-01 1.744682e-01 1.581693e-01 1.729302e-01 9.739964e-02 1.067074e-01 7.663546e-02 8.614041e-02 9.817491e-02 5.886654e-02 3.118501e-02 6.040462e-03 2.434498e-02 2.809696e-02 1.781657e-02 2.001867e-02 1.639597e-02 1.152273e-02 1.212796e-02 9.415208e-03 9.145577e-03 9.032113e-03 6.951708e-03 2.334664e-03 8.331778e-04
<GCONST> 7.992622e+00
<MIXTURE> 22 2.828292e-02
<MEAN> 39
 1.815694e+01 -8.710938e+00 1.681596e+00 -1.608114e+00 2.749296e+00 -2.048478e+00 -6.191712e-01 1.239933e+00 5.088657e-01 -1.642208e+00 -1.497038e-01 2.386988e+01 1.907266e+01 -4.595022e-01 -3.869186e-02 8.651497e-01 4.566181e-02 -6.478714e-01 -2.645789e-01 4.407801e-01 2.147309e-01 -1.663831e-01 -2.471180e-01 1.312586e-01 -1.099552e-01 -6.737030e-02 2.262973e-02 2.727933e-01 1.257869e-01 -1.226978e-01 -1.456346e-01 5.569222e-02 7.876565e-02 -8.573541e-02 -7.111768e-02 7.705554e-02 4.307827e-02 -2.498425e-02 -1.220499e-02
<VARIANCE> 39
 1.659935e+01 1.599386e+01 7.991092e+00 5.641570e+00 7.987854e+00 5.778926e+00 5.157577e+00 3.554372e+00 3.454989e+00 3.139805e+00 2.835716e+00 1.468617e+01 1.483878e+00 1.920506e-01 3.136833e-01 1.784958e-01 1.993543e-01 1.542867e-01 1.329541e-01 1.079542e-01 1.121024e-01 8.615150e-02 8.631586e-02 6.838876e-02 2.689482e-01 6.009456e-03 3.049170e-02 4.059239e-02 2.227465e-02 1.792194e-02 1.811557e-02 1.550270e-02 1.933659e-02 1.656451e-02 1.510377e-02 1.436687e-02 9.993937e-03 4.347695e-02 4.404248e-04
<GCONST> 1.120879e+01
<MIXTURE> 23 3.249041e-02
<MEAN> 39
 1.233558e+01 3.693969e+00 8.618467e+00 1.330244e+00 1.923702e+00 -1.126461e+00 1.040148e+00 -9.646573e-01 6.237519e-02 -7.846481e-01 5.414574e-01 2.324093e+01 1.575541e+01 -3.351491e+00 -1.046163e+00 -5.217346e-01 -2.509484e-02 4.885263e-01 1.878379e-02 4.436978e-01 4.435387e-02 2.330340e-01 -1.138418e-01 2.395872e-01 -3.608670e+00 -1.000376e+00 -2.249842e-01 -2.849519e-01 -2.689988e-01 -2.309065e-01 -1.476074e-01 -7.124792e-02 -2.406312e-02 2.440022e-02 4.845385e-02 5.555898e-02 2.016005e-02 -6.200339e-01 -3.928867e-02
<VARIANCE> 39
 3.403756e+01 2.640556e+01 1.618704e+01 1.078349e+01 7.443460e+00 6.669933e+00 4.172612e+00 3.910532e+00 2.808267e+00 2.601675e+00 2.211825e+00 3.237782e+01 2.196072e+00 2.706598e+00 1.517209e+00 1.020570e+00 6.464380e-01 3.481445e-01 2.666938e-01 2.412024e-01 1.869801e-01 1.621105e-01 1.371340e-01 1.422655e-01 2.593599e+00 1.631882e-01 2.258376e-01 1.595704e-01 8.162332e-02 6.348389e-02 3.839855e-02 3.598446e-02 2.877706e-02 2.409058e-02 1.874566e-02 1.573463e-02 1.516841e-02 2.985573e-01 1.774199e-02
<GCONST> 4.628699e+01
<MIXTURE> 24 3.360300e-02
<MEAN> 39
 1.411931e+01 9.324676e-01 1.298420e+01 -4.867213e+00 -3.693956e+00 -2.697484e+00 2.033208e-01 -1.907830e+00 -4.512617e-01 1.248564e+00 8.554010e-02 2.487686e+01 1.902707e+01 3.423674e-01 4.335763e-01 -7.939333e-02 9.861133e-02 1.177650e-01 1.114168e-01 -1.875475e-01 -2.795590e-02 6.495550e-02 8.157910e-03 -1.353240e-01 -5.926337e-02 -4.935329e-02 1.483884e-01 3.626029e-02 -3.591862e-01 2.689186e-01 1.737348e-01 -8.116844e-02 -2.626029e-02 8.737524e-02 2.075732e-02 -1.086703e-01 2.190918e-02 -5.462635e-02 -2.973887e-02
<VARIANCE> 39
 1.282368e+01 1.659624e+01 1.001244e+01 1.077784e+01 7.169402e+00 6.647204e+00 3.842977e+00 3.043835e+00 2.847630e+00 2.648160e+00 3.259556e+00 1.289953e+01 1.273361e+00 1.313829e+00 1.944090e+00 1.222820e+00 1.182621e+00 3.456358e-01 3.315291e-01 2.326000e-01 2.902681e-01 1.585077e-01 1.370298e-01 1.110224e-01 1.371404e-01 1.932876e-02 7.598928e-02 5.994354e-02 5.458295e-02 7.177164e-02 3.928605e-02 3.073801e-02 3.340112e-02 1.885235e-02 1.814453e-02 1.309744e-02 1.363465e-02 4.777412e-02 1.932116e-03
<GCONST> 3.157405e+01
<MIXTURE> 25 3.272209e-02
<MEAN> 39
 1.262537e+01 -1.529315e+00 4.487187e+00 -7.276156e+00 -2.686802e+00 -4.341247e+00 -1.287322e+00 -3.430440e+00 -1.790974e+00 -2.989584e+00 -2.744969e+00 3.228281e+01 1.973735e+01 2.216720e-01 2.934581e-01 -3.157147e-03 1.582985e-01 1.104449e-02 -2.667050e-03 -7.771271e-02 -3.641929e-02 -4.753337e-03 6.773690e-03 -1.888985e-02 1.121143e-01 -5.564998e-02 -4.976765e-02 -8.181062e-03 -1.620650e-02 1.361274e-01 8.799923e-02 4.111848e-02 3.004588e-02 4.630379e-02 2.669948e-02 3.557093e-02 8.716668e-02 -3.968896e-01 -5.473531e-02
<VARIANCE> 39
 3.945868e+01 3.141766e+01 3.677517e+01 2.031926e+01 8.455325e+00 7.236942e+00 6.747407e+00 5.319461e+00 5.719011e+00 3.987873e+00 2.449207e+00 6.239726e+00 1.112979e+00 9.513824e-01 1.777334e+00 7.907475e-01 7.855926e-01 4.217270e-01 2.661944e-01 2.779266e-01 2.470275e-01 2.235681e-01 1.852412e-01 1.380561e-01 1.834138e+00 4.674942e-02 1.504198e-01 1.365990e-01 8.610976e-02 1.019350e-01 5.821929e-02 3.814253e-02 4.051282e-02 3.235186e-02 3.367381e-02 2.687241e-02 1.964930e-02 3.855999e-01 7.812908e-03
<GCONST> 4.852444e+01
<MIXTURE> 26 2.216317e-02
<MEAN> 39
 1.171470e+01 5.443618e+00 1.462066e+01 -7.636328e+00 -1.761358e+00 -2.063279e+00 -1.947383e+00 -2.544833e+00 1.431190e+00 1.782143e-01 9.889418e-02 2.206180e+01 1.775158e+01 -3.857469e-01 3.571646e-01 -4.308488e-01 8.354974e-01 2.418802e-01 9.301534e-02 -3.092836e-02 -4.185413e-03 -1.410118e-01 -1.465128e-01 2.952360e-02 -1.878030e+00 -7.760324e-01 -3.472596e-01 -2.475448e-01 -4.666921e-01 3.030975e-01 6.488519e-02 -2.446179e-03 1.759984e-01 8.528950e-02 -4.260042e-02 -1.980753e-02 4.682976e-02 -7.171056e-01 -2.215109e-01
<VARIANCE> 39
